{"learner":{"attributes":{"scikit_learn":"{\"_estimator_type\": \"regressor\"}"},"feature_names":["Item_Identifier","Item_Weight","Item_Fat_Content","Item_Type","Item_MRP","Outlet_Identifier","Outlet_Size","Outlet_Location_Type","Outlet_Type","Item_Visibility_interpolate","Outlet_age"],"feature_types":["int","float","int","int","float","int","int","int","int","float","int"],"gradient_booster":{"model":{"gbtree_model_param":{"num_parallel_tree":"1","num_trees":"100"},"iteration_indptr":[0,1,2,3,4,5,6,7,8,9,10,11,12,13,14,15,16,17,18,19,20,21,22,23,24,25,26,27,28,29,30,31,32,33,34,35,36,37,38,39,40,41,42,43,44,45,46,47,48,49,50,51,52,53,54,55,56,57,58,59,60,61,62,63,64,65,66,67,68,69,70,71,72,73,74,75,76,77,78,79,80,81,82,83,84,85,86,87,88,89,90,91,92,93,94,95,96,97,98,99,100],"tree_info":[0,0,0,0,0,0,0,0,0,0,0,0,0,0,0,0,0,0,0,0,0,0,0,0,0,0,0,0,0,0,0,0,0,0,0,0,0,0,0,0,0,0,0,0,0,0,0,0,0,0,0,0,0,0,0,0,0,0,0,0,0,0,0,0,0,0,0,0,0,0,0,0,0,0,0,0,0,0,0,0,0,0,0,0,0,0,0,0,0,0,0,0,0,0,0,0,0,0,0,0],"trees":[{"base_weights":[-1.589653E-5,-8.1922235E2,8.322989E2,-5.8620435E2,-6.5153296E2,-5.101417E2,1.2036501E3,-1.3141245E3,-3.253548E2,9.740446E2,2.807627E3,-1.3954081E3,-7.764418E2,-4.605145E2,6.871495E2,5.9778284E2,1.686669E3,2.061381E3,3.707787E3,-1.4739202E3,-1.1385114E3,-1.1007563E3,-3.3040057E2,-6.9034454E2,-2.084331E2,4.184732E2,1.00966766E3,3.061581E2,8.363977E2,1.7704563E3,1.1864202E3,1.7462484E3,2.4569392E3,3.2482742E3,4.107461E3,-4.6736972E2,-4.1625543E2,-3.1904367E2,-3.944025E2,-3.533902E2,-2.5730832E2,-2.1285048E2,-6.406209E1,-2.4538763E2,-1.704717E2,-4.9012417E1,-1.3670724E2,4.6590397E1,1.4955106E2,3.9055472E2,2.379051E2,1.0401095E2,6.252874E0,1.989642E2,2.8107904E2,4.2724484E2,5.6962915E2,4.1923895E2,1.3816708E2,5.607335E2,3.1707184E2,6.7472644E2,1.0757717E3,4.545737E2,1.002339E3,5.3414844E2,1.2880393E3],"categories":[],"categories_nodes":[],"categories_segments":[],"categories_sizes":[],"default_left":[0,0,0,0,0,0,0,0,0,0,0,0,0,0,0,0,0,0,0,0,0,0,0,0,0,0,0,0,0,0,0,0,0,0,0,0,0,0,0,0,0,0,0,0,0,0,0,0,0,0,0,0,0,0,0,0,0,0,0,0,0,0,0,0,0,0,0],"id":0,"left_children":[1,3,5,-1,7,-1,9,11,13,15,17,19,21,23,25,27,29,31,33,35,37,39,41,43,45,47,49,51,53,55,57,59,61,63,65,-1,-1,-1,-1,-1,-1,-1,-1,-1,-1,-1,-1,-1,-1,-1,-1,-1,-1,-1,-1,-1,-1,-1,-1,-1,-1,-1,-1,-1,-1,-1,-1],"loss_changes":[4.650134E9,6.527624E8,3.1839199E9,0E0,6.4707674E8,0E0,1.0840658E9,4.209677E7,2.7524765E8,6.915799E8,2.4022938E8,1.5607296E7,1.873112E7,1.0257642E8,2.011424E7,1.1748339E8,3.5287296E7,2.1138816E7,1.7144576E7,2.576512E6,1.311536E6,4.1596E5,2.3736985E6,1.3980096E7,9.362008E6,2.681664E6,5.740848E6,8.819256E6,1.5570432E7,3.1154432E7,1.9424032E7,7.933824E6,1.25848E7,8.132864E6,2.9145472E7,0E0,0E0,0E0,0E0,0E0,0E0,0E0,0E0,0E0,0E0,0E0,0E0,0E0,0E0,0E0,0E0,0E0,0E0,0E0,0E0,0E0,0E0,0E0,0E0,0E0,0E0,0E0,0E0,0E0,0E0,0E0,0E0],"parents":[2147483647,0,0,1,1,2,2,4,4,6,6,7,7,8,8,9,9,10,10,11,11,12,12,13,13,14,14,15,15,16,16,17,17,18,18,19,19,20,20,21,21,22,22,23,23,24,24,25,25,26,26,27,27,28,28,29,29,30,30,31,31,32,32,33,33,34,34],"right_children":[2,4,6,-1,8,-1,10,12,14,16,18,20,22,24,26,28,30,32,34,36,38,40,42,44,46,48,50,52,54,56,58,60,62,64,66,-1,-1,-1,-1,-1,-1,-1,-1,-1,-1,-1,-1,-1,-1,-1,-1,-1,-1,-1,-1,-1,-1,-1,-1,-1,-1,-1,-1,-1,-1,-1,-1],"split_conditions":[1.43447E2,1E0,1E0,-5.8620435E2,7.6467E1,-5.101417E2,3E0,3E0,3E0,2.061638E2,1.89853E2,5.87904E1,5.20324E1,1.098228E2,1.092228E2,1.697448E2,2E0,1.713448E2,2.26172E2,4.51402E1,2E0,4.57428E1,3.6033638E-2,9.48436E1,2E0,8.70856E1,1.11E1,2E0,1.805976E2,2.246088E2,1.3E1,1.175683E-1,1.0609727E-1,1E0,2E0,-4.6736972E2,-4.1625543E2,-3.1904367E2,-3.944025E2,-3.533902E2,-2.5730832E2,-2.1285048E2,-6.406209E1,-2.4538763E2,-1.704717E2,-4.9012417E1,-1.3670724E2,4.6590397E1,1.4955106E2,3.9055472E2,2.379051E2,1.0401095E2,6.252874E0,1.989642E2,2.8107904E2,4.2724484E2,5.6962915E2,4.1923895E2,1.3816708E2,5.607335E2,3.1707184E2,6.7472644E2,1.0757717E3,4.545737E2,1.002339E3,5.3414844E2,1.2880393E3],"split_indices":[4,8,8,0,4,0,8,8,8,4,4,4,4,4,4,4,8,4,4,4,7,4,9,4,8,4,1,8,4,4,3,9,9,0,3,0,0,0,0,0,0,0,0,0,0,0,0,0,0,0,0,0,0,0,0,0,0,0,0,0,0,0,0,0,0,0,0],"split_type":[0,0,0,0,0,0,0,0,0,0,0,0,0,0,0,0,0,0,0,0,0,0,0,0,0,0,0,0,0,0,0,0,0,0,0,0,0,0,0,0,0,0,0,0,0,0,0,0,0,0,0,0,0,0,0,0,0,0,0,0,0,0,0,0,0,0,0],"sum_hessian":[6.818E3,3.436E3,3.382E3,4.41E2,2.995E3,4.32E2,2.95E3,9.87E2,2.008E3,2.582E3,3.68E2,8.56E2,1.31E2,1.772E3,2.36E2,1.691E3,8.91E2,2.03E2,1.65E2,6.52E2,2.04E2,7.5E1,5.6E1,9.26E2,8.46E2,1.3E2,1.06E2,7.62E2,9.29E2,7.61E2,1.3E2,1.16E2,8.7E1,8.1E1,8.4E1,3.22E2,3.3E2,1.48E2,5.6E1,5.4E1,2.1E1,1.2E1,4.4E1,4.5E2,4.76E2,7.17E2,1.29E2,3.1E1,9.9E1,4.3E1,6.3E1,6.67E2,9.5E1,3.44E2,5.85E2,2.09E2,5.52E2,1E2,3E1,9.7E1,1.9E1,7.6E1,1.1E1,5E0,7.6E1,7E0,7.7E1],"tree_param":{"num_deleted":"0","num_feature":"11","num_nodes":"67","size_leaf_vector":"1"}},{"base_weights":[6.883571E-1,-4.8845474E2,6.911617E2,-4.083114E2,-3.5708716E2,-3.4896863E2,9.552605E2,-7.983423E2,-6.302804E1,7.85841E2,2.140847E3,-9.446619E2,-5.0868683E2,-1.6544191E2,7.028342E2,5.0821686E2,1.1824106E3,1.579151E3,2.6152046E3,-1.0008525E3,-5.8547974E2,-6.0998004E2,2.3239192E2,-3.6880817E2,2.5669565E1,4.1998672E2,1.0374912E3,3.820566E2,6.563307E2,9.753985E2,1.2893805E3,-6.305661E1,1.6145388E3,2.9424922E3,2.2354275E3,-3.2085513E2,-2.6851227E2,-2.2723245E2,-6.958185E1,-1.0621508E2,-1.9096431E2,8.091366E1,-9.8858925E1,-1.00122406E2,-1.72008E2,-1.9803862E1,4.2988914E1,8.954736E1,2.4051678E2,3.1564362E2,-8.836841E1,1.3348718E2,6.6182755E1,2.062116E2,-1.2692184E2,8.372793E1,3.3086215E2,4.211306E2,3.2579916E2,1.3736671E2,-2.4388402E2,3.9518616E2,5.437052E2,4.4468378E2,9.617507E2,2.9218716E2,7.6658624E2],"categories":[],"categories_nodes":[],"categories_segments":[],"categories_sizes":[],"default_left":[0,0,0,0,0,0,0,0,0,0,0,0,0,0,0,0,0,0,0,0,0,0,0,0,0,0,0,0,0,0,0,0,0,0,0,0,0,0,0,0,0,0,0,0,0,0,0,0,0,0,0,0,0,0,0,0,0,0,0,0,0,0,0,0,0,0,0],"id":1,"left_children":[1,3,5,-1,7,-1,9,11,13,15,17,19,21,23,25,27,29,31,33,35,37,39,41,43,45,47,49,51,53,55,57,59,61,63,65,-1,-1,-1,-1,-1,-1,-1,-1,-1,-1,-1,-1,-1,-1,-1,-1,-1,-1,-1,-1,-1,-1,-1,-1,-1,-1,-1,-1,-1,-1,-1,-1],"loss_changes":[2.3033884E9,4.571136E8,1.3861027E9,0E0,4.5032957E8,0E0,4.9565056E8,5.834605E7,1.6357464E8,2.3808998E8,7.820173E7,1.800224E7,3.527276E7,7.148336E7,2.2849848E7,2.3611392E7,1.8494848E7,8.470208E6,1.4055424E7,4.81888E6,7.545336E6,2.575984E6,1.284229E6,6.199768E6,1.0243771E7,6.021884E6,2.496176E6,6.9292E6,1.9925376E7,2.7030848E7,1.2085248E7,1.9348472E6,5.903424E6,2.8318208E7,3.0194272E7,0E0,0E0,0E0,0E0,0E0,0E0,0E0,0E0,0E0,0E0,0E0,0E0,0E0,0E0,0E0,0E0,0E0,0E0,0E0,0E0,0E0,0E0,0E0,0E0,0E0,0E0,0E0,0E0,0E0,0E0,0E0,0E0],"parents":[2147483647,0,0,1,1,2,2,4,4,6,6,7,7,8,8,9,9,10,10,11,11,12,12,13,13,14,14,15,15,16,16,17,17,18,18,19,19,20,20,21,21,22,22,23,23,24,24,25,25,26,26,27,27,28,28,29,29,30,30,31,31,32,32,33,33,34,34],"right_children":[2,4,6,-1,8,-1,10,12,14,16,18,20,22,24,26,28,30,32,34,36,38,40,42,44,46,48,50,52,54,56,58,60,62,64,66,-1,-1,-1,-1,-1,-1,-1,-1,-1,-1,-1,-1,-1,-1,-1,-1,-1,-1,-1,-1,-1,-1,-1,-1,-1,-1,-1,-1,-1,-1,-1,-1],"split_conditions":[1.565288E2,1E0,1E0,-4.083114E2,9.12146E1,-3.4896863E2,3E0,6.66142E1,3E0,2.061638E2,1.89853E2,3E0,3E0,1.192782E2,1.219072E2,1.805976E2,2.284352E2,7.069662E-3,5.701106E-2,5.09666E1,5.38614E1,6.78E0,1.9E1,2E0,1.43447E2,9.2933156E-2,1.7351606E-1,2E0,2.085E1,2.0551458E-2,7.477855E-2,1.51E1,1.72108E2,1.976768E2,6.9909185E-2,-3.2085513E2,-2.6851227E2,-2.2723245E2,-6.958185E1,-1.0621508E2,-1.9096431E2,8.091366E1,-9.8858925E1,-1.00122406E2,-1.72008E2,-1.9803862E1,4.2988914E1,8.954736E1,2.4051678E2,3.1564362E2,-8.836841E1,1.3348718E2,6.6182755E1,2.062116E2,-1.2692184E2,8.372793E1,3.3086215E2,4.211306E2,3.2579916E2,1.3736671E2,-2.4388402E2,3.9518616E2,5.437052E2,4.4468378E2,9.617507E2,2.9218716E2,7.6658624E2],"split_indices":[4,8,8,0,4,0,8,4,8,4,4,8,8,4,4,4,4,9,9,4,4,1,1,8,4,9,9,7,1,9,9,1,4,4,9,0,0,0,0,0,0,0,0,0,0,0,0,0,0,0,0,0,0,0,0,0,0,0,0,0,0,0,0,0,0,0,0],"split_type":[0,0,0,0,0,0,0,0,0,0,0,0,0,0,0,0,0,0,0,0,0,0,0,0,0,0,0,0,0,0,0,0,0,0,0,0,0,0,0,0,0,0,0,0,0,0,0,0,0,0,0,0,0,0,0,0,0,0,0,0,0,0,0,0,0,0,0],"sum_hessian":[6.818E3,3.991E3,2.827E3,5.21E2,3.47E3,3.52E2,2.475E3,1.387E3,2.083E3,2.167E3,3.08E2,9.2E2,4.67E2,1.838E3,2.45E2,1.276E3,8.91E2,1.43E2,1.65E2,7.94E2,1.26E2,4.11E2,5.6E1,8.9E2,9.48E2,1.34E2,1.11E2,6.91E2,5.85E2,3.07E2,5.84E2,3E0,1.4E2,8.5E1,8E1,4.76E2,3.18E2,8.4E1,4.2E1,4E1,3.71E2,5.3E1,3E0,7.62E2,1.28E2,5.33E2,4.15E2,1.03E2,3.1E1,1.1E2,1E0,4.96E2,1.95E2,5.69E2,1.6E1,4.8E1,2.59E2,3.7E2,2.14E2,2E0,1E0,5.9E1,8.1E1,1.4E1,7.1E1,1.7E1,6.3E1],"tree_param":{"num_deleted":"0","num_feature":"11","num_nodes":"67","size_leaf_vector":"1"}},{"base_weights":[9.346949E-1,-3.2312064E2,5.14022E2,-9.52717E2,-2.2886067E2,-8.0736053E2,7.031404E2,-3.1228006E2,-2.7377426E2,-5.2148E2,6.6836815E0,-2.5168172E2,-7.324163E2,5.8106757E2,1.5514371E3,-6.622256E2,-3.3608374E2,-6.712637E1,5.717929E2,-3.0225222E0,-7.3919977E2,3.8484845E2,8.289897E2,1.2860927E3,2.0503735E3,-7.013381E2,-4.1217294E2,-4.0714816E2,1.5795709E2,-1.8438905E2,8.8954315E1,3.7467316E2,8.2128326E2,-3.2454315E2,-2.2446413E2,3.5447507E2,7.0108154E2,8.861362E2,4.9025174E2,8.791636E2,1.4780101E3,2.3922153E3,1.463124E3,-1.990734E2,-2.408114E2,-1.7857497E2,-7.1801735E1,-1.4552138E2,-1.0249778E2,6.9070015E1,-1.3081465E2,-8.065207E1,-3.2958935E1,-5.5784714E1,3.611729E1,1.24057144E2,-1.1344904E2,2.6229608E2,-1.1474969E2,-1.5137158E2,3.2331467E1,1.19387566E2,2.5629576E1,2.5591335E2,-2.1946848E1,2.986698E2,2.0858328E2,9.187291E1,4.1640338E2,3.6869696E2,8.528251E1,4.5604572E2,3.8656322E1,4.8314914E2,8.6710175E2,1.638331E2,6.669392E2],"categories":[],"categories_nodes":[],"categories_segments":[],"categories_sizes":[],"default_left":[0,0,0,0,0,0,0,0,0,0,0,0,0,0,0,0,0,0,0,0,0,0,0,0,0,0,0,0,0,0,0,0,0,0,0,0,0,0,0,0,0,0,0,0,0,0,0,0,0,0,0,0,0,0,0,0,0,0,0,0,0,0,0,0,0,0,0,0,0,0,0,0,0,0,0,0,0],"id":2,"left_children":[1,3,5,7,9,11,13,-1,-1,15,17,-1,19,21,23,25,27,29,31,-1,33,35,37,39,41,43,45,47,49,51,53,55,57,59,-1,61,63,65,67,69,71,73,75,-1,-1,-1,-1,-1,-1,-1,-1,-1,-1,-1,-1,-1,-1,-1,-1,-1,-1,-1,-1,-1,-1,-1,-1,-1,-1,-1,-1,-1,-1,-1,-1,-1,-1],"loss_changes":[1.133952E9,2.4784714E8,6.60298E8,9.7616E5,2.5068309E8,1.6888E5,2.3830822E8,0E0,0E0,4.210141E7,8.412724E7,0E0,5.11952E5,9.799667E7,3.575616E7,8.718496E6,2.471064E7,3.2667958E7,1.1151104E7,0E0,1.49632E5,1.06052E7,1.6832704E7,1.36952E7,1.6373792E7,2.510272E6,3.876052E6,2.967568E6,3.9213885E6,6.383848E6,6.6421875E6,4.017144E6,6.846616E6,3.6569484E5,0E0,1.2051E7,1.159264E7,1.5222592E7,2.1215554E7,1.2969516E7,7.13856E6,1.9098048E7,2.5966448E7,0E0,0E0,0E0,0E0,0E0,0E0,0E0,0E0,0E0,0E0,0E0,0E0,0E0,0E0,0E0,0E0,0E0,0E0,0E0,0E0,0E0,0E0,0E0,0E0,0E0,0E0,0E0,0E0,0E0,0E0,0E0,0E0,0E0,0E0],"parents":[2147483647,0,0,1,1,2,2,3,3,4,4,5,5,6,6,9,9,10,10,12,12,13,13,14,14,15,15,16,16,17,17,18,18,20,20,21,21,22,22,23,23,24,24,25,25,26,26,27,27,28,28,29,29,30,30,31,31,32,32,33,33,35,35,36,36,37,37,38,38,39,39,40,40,41,41,42,42],"right_children":[2,4,6,8,10,12,14,-1,-1,16,18,-1,20,22,24,26,28,30,32,-1,34,36,38,40,42,44,46,48,50,52,54,56,58,60,-1,62,64,66,68,70,72,74,76,-1,-1,-1,-1,-1,-1,-1,-1,-1,-1,-1,-1,-1,-1,-1,-1,-1,-1,-1,-1,-1,-1,-1,-1,-1,-1,-1,-1,-1,-1,-1,-1,-1,-1],"split_conditions":[1.617578E2,1E0,1E0,7.87986E1,9.85358E1,2.187166E2,3E0,-3.1228006E2,-2.7377426E2,6.66142E1,3E0,-2.5168172E2,5.73E0,2.061638E2,2.217456E2,3E0,3E0,1.289652E2,1.299652E2,-3.0225222E0,2.201798E2,1.4E1,2E0,1.115E1,1.415E1,2E0,4.64744E1,2E0,9.64436E1,1.126176E2,3E0,1.273678E2,1.595578E2,7.235E0,-2.2446413E2,2E0,1.775E1,7.477855E-2,1.09459735E-1,9.8E0,2.171192E2,9.8E0,1.5983334E1,-1.990734E2,-2.408114E2,-1.7857497E2,-7.1801735E1,-1.4552138E2,-1.0249778E2,6.9070015E1,-1.3081465E2,-8.065207E1,-3.2958935E1,-5.5784714E1,3.611729E1,1.24057144E2,-1.1344904E2,2.6229608E2,-1.1474969E2,-1.5137158E2,3.2331467E1,1.19387566E2,2.5629576E1,2.5591335E2,-2.1946848E1,2.986698E2,2.0858328E2,9.187291E1,4.1640338E2,3.6869696E2,8.528251E1,4.5604572E2,3.8656322E1,4.8314914E2,8.6710175E2,1.638331E2,6.669392E2],"split_indices":[4,8,8,4,4,4,8,0,0,4,8,0,1,4,4,8,8,4,4,0,4,3,8,1,1,7,4,6,4,4,3,4,4,1,0,8,1,9,9,1,4,1,1,0,0,0,0,0,0,0,0,0,0,0,0,0,0,0,0,0,0,0,0,0,0,0,0,0,0,0,0,0,0,0,0,0,0],"split_type":[0,0,0,0,0,0,0,0,0,0,0,0,0,0,0,0,0,0,0,0,0,0,0,0,0,0,0,0,0,0,0,0,0,0,0,0,0,0,0,0,0,0,0,0,0,0,0,0,0,0,0,0,0,0,0,0,0,0,0,0,0,0,0,0,0,0,0,0,0,0,0,0,0,0,0,0,0],"sum_hessian":[6.818E3,4.179E3,2.639E3,5.43E2,3.636E3,3.3E2,2.309E3,1.62E2,3.81E2,1.621E3,2.015E3,2.25E2,1.05E2,2.02E3,2.89E2,9.2E2,7.01E2,1.783E3,2.32E2,1E0,1.04E2,1.129E3,8.91E2,1.91E2,9.8E1,7.94E2,1.26E2,6.13E2,8.8E1,1.018E3,7.65E2,1.31E2,1.01E2,3E0,1.01E2,1.032E3,9.7E1,7.61E2,1.3E2,6.3E1,1.28E2,6E1,3.8E1,5.84E2,2.1E2,6E1,6.6E1,2.77E2,3.36E2,7.9E1,9E0,4.76E2,5.42E2,7.8E1,6.87E2,1.25E2,6E0,9.7E1,4E0,2E0,1E0,8.88E2,1.44E2,8.1E1,1.6E1,4.81E2,2.8E2,1.09E2,2.1E1,3.9E1,2.4E1,1.24E2,4E0,2.5E1,3.5E1,1.8E1,2E1],"tree_param":{"num_deleted":"0","num_feature":"11","num_nodes":"77","size_leaf_vector":"1"}},{"base_weights":[1.0011103E0,-2.4092566E2,3.4250418E2,-6.6830884E2,-1.7658253E2,-5.727679E2,4.7285495E2,-2.143714E2,-6.2513403E2,-4.270797E2,-4.77065E1,-6.245991E2,-5.3700183E2,3.873371E2,1.0713335E3,-9.0886116E1,-1.8826413E2,-5.183279E2,-3.4023904E2,-9.7511986E1,3.2271408E2,-3.6177963E1,-6.2739777E2,-2.698694E2,-5.446576E2,2.7095807E2,6.279535E2,7.616113E2,1.3335542E3,-6.627686E2,-4.9657877E2,-3.848237E2,-5.009556E1,-2.1663464E2,-8.98379E0,1.8566797E2,5.168365E2,-6.405759E2,-4.182135E2,-2.9298984E2,-1.6203957E1,-1.9856367E2,-1.5754008E2,3.3181146E2,1.1544262E2,8.422711E2,5.342742E2,8.648452E2,3.5740887E2,1.2515159E3,2.3757754E3,-2.2126012E2,-1.6005394E2,-1.6932768E2,-1.4063414E2,-1.0628981E2,-1.4017795E2,5.2585632E1,-3.3521416E1,-5.4895878E1,-9.8787125E1,6.1709647E0,-5.6251553E1,1.5517406E2,2.5810583E1,1.8299742E2,7.612637E1,-7.3604256E1,-1.9348106E2,-1.3734631E2,-3.3207276E0,-1.0444576E2,-3.101662E1,6.386811E1,1.3516507E2,1.4647441E2,2.2908903E1,3.0448962E2,8.641937E1,1.8186588E2,2.0012508E1,1.6694055E2,3.2662585E2,3.5197733E2,-2.6088005E1,4.0114163E2,6.204253E1,8.9261505E2,1.747847E2],"categories":[],"categories_nodes":[],"categories_segments":[],"categories_sizes":[],"default_left":[0,0,0,0,0,0,0,0,0,0,0,0,0,0,0,0,0,0,0,0,0,0,0,0,0,0,0,0,0,0,0,0,0,0,0,0,0,0,0,0,0,0,0,0,0,0,0,0,0,0,0,0,0,0,0,0,0,0,0,0,0,0,0,0,0,0,0,0,0,0,0,0,0,0,0,0,0,0,0,0,0,0,0,0,0,0,0,0,0],"id":3,"left_children":[1,3,5,7,9,11,13,-1,15,17,19,21,23,25,27,-1,-1,29,31,33,35,-1,37,39,41,43,45,47,49,51,53,55,57,59,61,63,65,67,69,71,-1,-1,-1,73,75,77,79,81,83,85,87,-1,-1,-1,-1,-1,-1,-1,-1,-1,-1,-1,-1,-1,-1,-1,-1,-1,-1,-1,-1,-1,-1,-1,-1,-1,-1,-1,-1,-1,-1,-1,-1,-1,-1,-1,-1,-1,-1],"loss_changes":[5.6345965E8,1.0965866E8,3.3766944E8,5.9592E5,1.120342E8,3.18984E5,1.2630822E8,0E0,2.6008E4,9.166112E6,4.233497E7,1.18992E5,2.94752E5,6.053971E7,2.4079936E7,0E0,0E0,1.470928E6,7.83284E6,2.1321488E7,7.14025E6,0E0,1.09768E5,2.410025E4,1.30752E5,1.3807E7,1.3724448E7,5.699656E6,1.1220064E7,3.02308E5,6.82192E5,1.158032E6,1.158816E6,3.207312E6,6.129249E6,5.27431E6,2.590036E6,6.0656E4,1.7231812E5,3.721725E4,0E0,0E0,0E0,1.474436E7,5.97975E6,2.0093488E7,1.6577328E7,7.2656E6,1.13407E7,1.3677776E7,1.0093612E7,0E0,0E0,0E0,0E0,0E0,0E0,0E0,0E0,0E0,0E0,0E0,0E0,0E0,0E0,0E0,0E0,0E0,0E0,0E0,0E0,0E0,0E0,0E0,0E0,0E0,0E0,0E0,0E0,0E0,0E0,0E0,0E0,0E0,0E0,0E0,0E0,0E0,0E0],"parents":[2147483647,0,0,1,1,2,2,3,3,4,4,5,5,6,6,8,8,9,9,10,10,11,11,12,12,13,13,14,14,17,17,18,18,19,19,20,20,22,22,23,23,24,24,25,25,26,26,27,27,28,28,29,29,30,30,31,31,32,32,33,33,34,34,35,35,36,36,37,37,38,38,39,39,43,43,44,44,45,45,46,46,47,47,48,48,49,49,50,50],"right_children":[2,4,6,8,10,12,14,-1,16,18,20,22,24,26,28,-1,-1,30,32,34,36,-1,38,40,42,44,46,48,50,52,54,56,58,60,62,64,66,68,70,72,-1,-1,-1,74,76,78,80,82,84,86,88,-1,-1,-1,-1,-1,-1,-1,-1,-1,-1,-1,-1,-1,-1,-1,-1,-1,-1,-1,-1,-1,-1,-1,-1,-1,-1,-1,-1,-1,-1,-1,-1,-1,-1,-1,-1,-1,-1],"split_conditions":[1.565288E2,1E0,1E0,9.85358E1,8.49224E1,1.85224E2,3E0,-2.143714E2,9.89726E1,5.20324E1,3E0,5.26E0,6.135E0,2.201798E2,1.89853E2,-9.0886116E1,-1.8826413E2,1.7E1,3E0,1.126176E2,1.219072E2,-3.6177963E1,1.91E1,6.11E0,8.06E0,2E0,3E0,1.575E1,1.84E1,4.51402E1,3.8319E1,2E0,4E0,1.725E1,2E0,1.01E1,8.080402E-2,1.0593469E-2,1.6151689E-1,8.024997E-2,-1.6203957E1,-1.9856367E2,-1.5754008E2,1.818608E2,1E0,9.2933156E-2,1.835E1,1.115E1,5E0,1.685E1,7E0,-2.2126012E2,-1.6005394E2,-1.6932768E2,-1.4063414E2,-1.0628981E2,-1.4017795E2,5.2585632E1,-3.3521416E1,-5.4895878E1,-9.8787125E1,6.1709647E0,-5.6251553E1,1.5517406E2,2.5810583E1,1.8299742E2,7.612637E1,-7.3604256E1,-1.9348106E2,-1.3734631E2,-3.3207276E0,-1.0444576E2,-3.101662E1,6.386811E1,1.3516507E2,1.4647441E2,2.2908903E1,3.0448962E2,8.641937E1,1.8186588E2,2.0012508E1,1.6694055E2,3.2662585E2,3.5197733E2,-2.6088005E1,4.0114163E2,6.204253E1,8.9261505E2,1.747847E2],"split_indices":[4,8,8,4,4,4,8,0,4,4,8,1,1,4,4,0,0,10,8,4,4,0,1,1,1,7,5,1,1,4,4,7,3,1,8,1,9,9,9,9,0,0,0,4,0,9,1,1,3,1,3,0,0,0,0,0,0,0,0,0,0,0,0,0,0,0,0,0,0,0,0,0,0,0,0,0,0,0,0,0,0,0,0,0,0,0,0,0,0],"split_type":[0,0,0,0,0,0,0,0,0,0,0,0,0,0,0,0,0,0,0,0,0,0,0,0,0,0,0,0,0,0,0,0,0,0,0,0,0,0,0,0,0,0,0,0,0,0,0,0,0,0,0,0,0,0,0,0,0,0,0,0,0,0,0,0,0,0,0,0,0,0,0,0,0,0,0,0,0,0,0,0,0,0,0,0,0,0,0,0,0],"sum_hessian":[6.818E3,3.991E3,2.827E3,5.21E2,3.47E3,3.52E2,2.475E3,2.44E2,2.77E2,1.178E3,2.292E3,1.37E2,2.15E2,2.167E3,3.08E2,3E0,2.74E2,5.72E2,6.06E2,2.021E3,2.71E2,1E0,1.36E2,7E0,2.08E2,1.462E3,7.05E2,1.43E2,1.65E2,7.1E1,5.01E2,5.25E2,8.1E1,8.61E2,1.16E3,1.6E2,1.11E2,1.26E2,1E1,6E0,1E0,2.5E1,1.83E2,1.05E3,4.12E2,2.12E2,4.93E2,1.13E2,3E1,1.55E2,1E1,4.2E1,2.9E1,1.4E2,3.61E2,3.87E2,1.38E2,1.7E1,6.4E1,6.65E2,1.96E2,9.96E2,1.64E2,3.6E1,1.24E2,8.1E1,3E1,2E0,1.24E2,9E0,1E0,4E0,2E0,5.26E2,5.24E2,3.8E1,3.74E2,1.61E2,5.1E1,4.27E2,6.6E1,4.9E1,6.4E1,1E1,2E1,1.43E2,1.2E1,7E0,3E0],"tree_param":{"num_deleted":"0","num_feature":"11","num_nodes":"89","size_leaf_vector":"1"}},{"base_weights":[8.7436223E-1,-2.0230081E2,2.072924E2,-3.508241E2,-1.2804811E2,-4.1145078E2,2.9801028E2,-1.557785E2,-3.2353265E2,-4.4552518E2,-8.2946556E1,-4.4245755E2,-3.7825204E2,2.3971683E2,7.0525696E2,-3.456081E2,-1.7775845E2,-4.7000455E2,-4.1681436E2,-1.1495413E2,1.5685252E2,-3.6390067E2,-4.6426895E2,-3.915112E2,-2.9286005E2,1.4937709E2,4.1080997E2,5.832886E2,1.1059127E3,-3.7043613E2,-2.5278369E2,-4.1046732E2,-1.3003456E2,-1.500154E2,-1.2598157E2,-4.1875958E2,-2.1964638E1,-1.9599542E2,-7.174482E1,-1.3361266E2,2.1474017E2,-1.7960521E2,-4.035042E2,-3.693262E2,-4.823635E2,-2.3315546E2,-3.9927213E2,-3.4031912E2,4.097462E1,6.519402E1,2.182828E2,4.608679E2,1.753456E2,5.575118E2,5.7458606E2,1.3833292E3,9.658951E2,-1.0679055E2,-1.3709773E2,-6.1540154E1,-1.370911E2,-1.562856E2,-8.704889E0,-7.137936E1,-2.2409222E0,-3.3549557E1,-1.26051994E2,-6.412311E1,-2.2323074E1,-1.390196E1,-6.513323E1,-6.666794E1,1.5933878E2,1.6104314E2,4.482616E1,-1.0017568E2,-1.3116981E1,-1.2462434E2,-5.595102E1,-1.2215578E2,-3.5929873E0,-1.4849185E2,-1.0682099E2,-1.9133429E1,-1.270958E2,-5.4593838E1,-1.2178481E2,-1.2155273E2,-3.5827057E1,-2.8345982E1,8.742293E1,4.0790123E1,-1.7249101E0,6.0100674E1,2.5037682E2,1.14326324E2,2.1362859E2,8.874901E1,-1.26055084E2,1.7500714E2,-2.1728822E2,-1.8909376E1,3.1844818E2],"categories":[],"categories_nodes":[],"categories_segments":[],"categories_sizes":[],"default_left":[0,0,0,0,0,0,0,0,0,0,0,0,0,0,0,0,0,0,0,0,0,0,0,0,0,0,0,0,0,0,0,0,0,0,0,0,0,0,0,0,0,0,0,0,0,0,0,0,0,0,0,0,0,0,0,0,0,0,0,0,0,0,0,0,0,0,0,0,0,0,0,0,0,0,0,0,0,0,0,0,0,0,0,0,0,0,0,0,0,0,0,0,0,0,0,0,0,0,0,0,0,0,0],"id":4,"left_children":[1,3,5,7,9,11,13,-1,15,17,19,21,23,25,27,29,31,33,35,37,39,41,43,45,47,49,51,53,55,57,59,61,63,-1,-1,65,-1,67,69,71,73,75,77,79,81,83,85,87,89,91,93,95,97,99,-1,-1,101,-1,-1,-1,-1,-1,-1,-1,-1,-1,-1,-1,-1,-1,-1,-1,-1,-1,-1,-1,-1,-1,-1,-1,-1,-1,-1,-1,-1,-1,-1,-1,-1,-1,-1,-1,-1,-1,-1,-1,-1,-1,-1,-1,-1,-1,-1],"loss_changes":[2.860241E8,3.7859184E7,1.9001405E8,5.095472E6,3.2795836E7,2.7836E5,6.988712E7,0E0,3.117976E6,4.404E3,1.5437885E7,2.04584E5,1.29906E5,3.98628E7,1.7386992E7,1.881448E6,1.412587E6,9.636E3,6.2914E4,6.19452E6,4.013692E6,3.07064E5,1.08748E5,1.3304E5,5.3677925E5,9.800544E6,1.0433072E7,8.717576E6,3.726311E7,6.81344E5,1.696481E6,9.12062E5,1.4661235E6,0E0,0E0,1.3326E4,0E0,1.313378E6,4.26645E6,2.474243E6,4.085216E6,2.1605281E5,3.1074E4,4.145275E5,4.1922E4,3.279053E5,1.78586E5,3.6708225E5,1.9715558E5,3.8317315E6,1.0119532E7,1.4460192E7,1.1461116E7,9.731696E6,0E0,0E0,8.231144E6,0E0,0E0,0E0,0E0,0E0,0E0,0E0,0E0,0E0,0E0,0E0,0E0,0E0,0E0,0E0,0E0,0E0,0E0,0E0,0E0,0E0,0E0,0E0,0E0,0E0,0E0,0E0,0E0,0E0,0E0,0E0,0E0,0E0,0E0,0E0,0E0,0E0,0E0,0E0,0E0,0E0,0E0,0E0,0E0,0E0,0E0],"parents":[2147483647,0,0,1,1,2,2,3,3,4,4,5,5,6,6,8,8,9,9,10,10,11,11,12,12,13,13,14,14,15,15,16,16,17,17,18,18,19,19,20,20,21,21,22,22,23,23,24,24,25,25,26,26,27,27,28,28,29,29,30,30,31,31,32,32,35,35,37,37,38,38,39,39,40,40,41,41,42,42,43,43,44,44,45,45,46,46,47,47,48,48,49,49,50,50,51,51,52,52,53,53,56,56],"right_children":[2,4,6,8,10,12,14,-1,16,18,20,22,24,26,28,30,32,34,36,38,40,42,44,46,48,50,52,54,56,58,60,62,64,-1,-1,66,-1,68,70,72,74,76,78,80,82,84,86,88,90,92,94,96,98,100,-1,-1,102,-1,-1,-1,-1,-1,-1,-1,-1,-1,-1,-1,-1,-1,-1,-1,-1,-1,-1,-1,-1,-1,-1,-1,-1,-1,-1,-1,-1,-1,-1,-1,-1,-1,-1,-1,-1,-1,-1,-1,-1,-1,-1,-1,-1,-1,-1],"split_conditions":[1.43447E2,7.6467E1,1E0,1E0,1E0,1.85224E2,3E0,-1.557785E2,3E0,1E0,3E0,4.5950476E-2,1.775E1,2.061638E2,2.26172E2,5.97536E1,2.956045E-2,8E0,1.97E1,1.005332E2,2.1501066E-2,9.695E0,4E0,1.880872E2,2E0,1.697448E2,2E0,1.92E1,1.4342659E-2,2E0,1.735E1,1.406125E1,4.93008E1,-1.500154E2,-1.2598157E2,9.958941E-3,-2.1964638E1,2E0,2E0,1.2E1,3.348998E-2,3.0742083E-2,4.4414055E-2,1.79866E2,1.885E1,1.6151689E-1,6.135E0,1E0,1.84E1,4.9579885E-2,1.5E1,2.541014E2,2.563672E2,1.875E1,5.7458606E2,1.3833292E3,2E0,-1.0679055E2,-1.3709773E2,-6.1540154E1,-1.370911E2,-1.562856E2,-8.704889E0,-7.137936E1,-2.2409222E0,-3.3549557E1,-1.26051994E2,-6.412311E1,-2.2323074E1,-1.390196E1,-6.513323E1,-6.666794E1,1.5933878E2,1.6104314E2,4.482616E1,-1.0017568E2,-1.3116981E1,-1.2462434E2,-5.595102E1,-1.2215578E2,-3.5929873E0,-1.4849185E2,-1.0682099E2,-1.9133429E1,-1.270958E2,-5.4593838E1,-1.2178481E2,-1.2155273E2,-3.5827057E1,-2.8345982E1,8.742293E1,4.0790123E1,-1.7249101E0,6.0100674E1,2.5037682E2,1.14326324E2,2.1362859E2,8.874901E1,-1.26055084E2,1.7500714E2,-2.1728822E2,-1.8909376E1,3.1844818E2],"split_indices":[4,4,8,8,8,4,8,0,8,5,8,9,1,4,4,4,9,3,1,4,9,1,3,4,0,4,0,1,9,8,1,1,4,0,0,9,0,0,8,3,9,9,9,4,1,9,1,5,1,9,3,4,4,1,0,0,3,0,0,0,0,0,0,0,0,0,0,0,0,0,0,0,0,0,0,0,0,0,0,0,0,0,0,0,0,0,0,0,0,0,0,0,0,0,0,0,0,0,0,0,0,0,0],"split_type":[0,0,0,0,0,0,0,0,0,0,0,0,0,0,0,0,0,0,0,0,0,0,0,0,0,0,0,0,0,0,0,0,0,0,0,0,0,0,0,0,0,0,0,0,0,0,0,0,0,0,0,0,0,0,0,0,0,0,0,0,0,0,0,0,0,0,0,0,0,0,0,0,0,0,0,0,0,0,0,0,0,0,0,0,0,0,0,0,0,0,0,0,0,0,0,0,0,0,0,0,0,0,0],"sum_hessian":[6.818E3,3.436E3,3.382E3,1.144E3,2.292E3,4.32E2,2.95E3,1.57E2,9.87E2,2.84E2,2.008E3,2.17E2,2.15E2,2.582E3,3.68E2,8.56E2,1.31E2,1.45E2,1.39E2,1.772E3,2.36E2,5.1E1,1.66E2,1.83E2,3.2E1,1.691E3,8.91E2,2.84E2,8.4E1,6.73E2,1.83E2,2.1E1,1.1E2,8.5E1,6E1,1.38E2,1E0,6.15E2,1.157E3,3.9E1,1.97E2,1E1,4.1E1,3E1,1.36E2,1E1,1.73E2,2.8E1,4E0,7.62E2,9.29E2,7.34E2,1.57E2,2.8E2,4E0,2E0,8.2E1,5.81E2,9.2E1,1.5E2,3.3E1,1.6E1,5E0,5.8E1,5.2E1,1E0,1.37E2,5.36E2,7.9E1,9.86E2,1.71E2,3.5E1,4E0,3.2E1,1.65E2,4E0,6E0,3.8E1,3E0,2.7E1,3E0,1.21E2,1.5E1,6E0,4E0,6E0,1.67E2,2.1E1,7E0,3E0,1E0,3.81E2,3.81E2,9.04E2,2.5E1,5.59E2,1.75E2,1.31E2,2.6E1,2.75E2,5E0,7E0,7.5E1],"tree_param":{"num_deleted":"0","num_feature":"11","num_nodes":"103","size_leaf_vector":"1"}},{"base_weights":[6.997579E-1,-1.0464895E2,2.0134657E2,-3.3069104E2,-7.061108E1,-2.7337335E2,2.6811075E2,-1.16578316E2,-3.1838525E2,-1.6245023E2,3.1487385E1,-3.1418262E2,-2.512351E2,2.1945926E2,6.099044E2,-3.2159808E2,-2.0350711E2,-2.3916833E2,-1.0766237E2,4.912064E0,2.304735E2,-2.6014212E2,-3.9266382E2,-1.0310942E2,-2.7786493E2,1.7000928E2,3.5589185E2,-2.502815E2,6.303266E2,-2.7461914E2,-3.296227E2,-5.365336E1,-7.4696175E1,-2.5409724E2,-1.4415208E2,-1.2742208E2,3.3118687E1,1.0276359E2,-2.2994186E1,8.679711E2,2.019187E2,-1.5722606E2,-3.682831E2,-3.8699417E1,-4.0372864E2,-1.4446852E2,2.1218164E2,-3.3278043E2,-1.8994954E2,-2.0118758E2,1.9720094E2,7.255827E2,2.9190585E2,6.083222E2,6.78375E2,-8.751451E1,-2.0061348E1,-9.75153E1,-1.296384E2,-6.5276665E1,1.2518322E1,-8.7448685E1,-6.727002E1,-8.062424E1,-2.8399815E1,3.4866062E1,-4.1689922E1,-6.785912E0,5.8518578E1,2.3113087E1,1.7657751E2,-2.7593515E1,8.042071E0,4.1881166E0,3.8779495E2,2.3924092E2,4.944147E1,-5.1294724E1,4.244655E1,1.8528755E1,-1.1575431E2,-1.4182196E2,-1.0149728E2,6.938048E1,-5.008506E1,1.0329653E2,-2.7635807E1,-4.690083E1,-1.0335188E2,-2.1846651E1,-6.708939E1,1.2042379E2,-1.4261447E2,4.6257328E1,9.302732E1,3.146906E2,-8.300088E0,-5.472444E1,1.0017255E2,1.7307509E2,4.8618097E2],"categories":[],"categories_nodes":[],"categories_segments":[],"categories_sizes":[],"default_left":[0,0,0,0,0,0,0,0,0,0,0,0,0,0,0,0,0,0,0,0,0,0,0,0,0,0,0,0,0,0,0,0,0,0,0,0,0,0,0,0,0,0,0,0,0,0,0,0,0,0,0,0,0,0,0,0,0,0,0,0,0,0,0,0,0,0,0,0,0,0,0,0,0,0,0,0,0,0,0,0,0,0,0,0,0,0,0,0,0,0,0,0,0,0,0,0,0,0,0,0,0],"id":5,"left_children":[1,3,5,7,9,11,13,-1,15,17,19,21,23,25,27,29,31,33,35,37,39,41,43,45,47,49,51,-1,53,55,57,59,-1,61,63,65,67,69,71,73,75,77,79,-1,81,83,85,87,89,91,93,95,97,99,-1,-1,-1,-1,-1,-1,-1,-1,-1,-1,-1,-1,-1,-1,-1,-1,-1,-1,-1,-1,-1,-1,-1,-1,-1,-1,-1,-1,-1,-1,-1,-1,-1,-1,-1,-1,-1,-1,-1,-1,-1,-1,-1,-1,-1,-1,-1],"loss_changes":[1.4416029E8,3.438419E7,7.449147E7,2.93116E5,3.646147E7,1.83066E5,3.41048E7,0E0,1.14664E5,8.578244E6,9.739584E6,3.13485E5,7.32649E5,1.2110336E7,8.076112E6,8.78E4,9.5686875E4,1.171928E6,3.331245E6,4.442431E6,3.774926E6,6.2099225E5,5.87815E4,4.3489838E5,7.2374E5,1.3423608E7,1.1118968E7,0E0,7.70396E6,2.468655E5,4.6516E4,8.726123E4,0E0,7.55528E5,7.0211475E5,2.966654E6,1.3403275E6,4.465522E6,4.3517935E6,3.2460755E6,4.488133E6,1.5979638E5,2.428845E5,0E0,2.5515E3,2.7513156E5,1.9256016E5,1.50968E5,2.40143E5,1.5226692E7,5.953444E6,1.708034E7,8.229228E6,7.044568E6,0E0,0E0,0E0,0E0,0E0,0E0,0E0,0E0,0E0,0E0,0E0,0E0,0E0,0E0,0E0,0E0,0E0,0E0,0E0,0E0,0E0,0E0,0E0,0E0,0E0,0E0,0E0,0E0,0E0,0E0,0E0,0E0,0E0,0E0,0E0,0E0,0E0,0E0,0E0,0E0,0E0,0E0,0E0,0E0,0E0,0E0,0E0],"parents":[2147483647,0,0,1,1,2,2,3,3,4,4,5,5,6,6,8,8,9,9,10,10,11,11,12,12,13,13,14,14,15,15,16,16,17,17,18,18,19,19,20,20,21,21,22,22,23,23,24,24,25,25,26,26,28,28,29,29,30,30,31,31,33,33,34,34,35,35,36,36,37,37,38,38,39,39,40,40,41,41,42,42,44,44,45,45,46,46,47,47,48,48,49,49,50,50,51,51,52,52,53,53],"right_children":[2,4,6,8,10,12,14,-1,16,18,20,22,24,26,28,30,32,34,36,38,40,42,44,46,48,50,52,-1,54,56,58,60,-1,62,64,66,68,70,72,74,76,78,80,-1,82,84,86,88,90,92,94,96,98,100,-1,-1,-1,-1,-1,-1,-1,-1,-1,-1,-1,-1,-1,-1,-1,-1,-1,-1,-1,-1,-1,-1,-1,-1,-1,-1,-1,-1,-1,-1,-1,-1,-1,-1,-1,-1,-1,-1,-1,-1,-1,-1,-1,-1,-1,-1,-1],"split_conditions":[1.705422E2,1E0,1E0,5.30298E1,1.098228E2,6.783685E-2,3E0,-1.16578316E2,2.7988696E-1,6.25168E1,3E0,4.749137E-2,9.1237456E-2,2.339958E2,7.069662E-3,3.42446E-2,4E0,3E0,3E0,2.8696932E-2,7.17E0,1.22325E1,1.75037E2,8.779192E-2,1.395E1,1.4649641E-2,2E0,-2.502815E2,1.7351606E-1,3.186602E-2,1.678474E2,9.1175E0,-7.4696175E1,4.51402E1,3.6033638E-2,5.78E0,9.2933156E-2,1.669184E2,1.289652E2,6.11E0,1.126176E2,2.591962E2,1.713448E2,-3.8699417E1,5.5805027E-2,2E0,9E0,1.738054E2,1.55E1,3E0,1E1,1.685E1,6.48E0,1.91E1,6.78375E2,-8.751451E1,-2.0061348E1,-9.75153E1,-1.296384E2,-6.5276665E1,1.2518322E1,-8.7448685E1,-6.727002E1,-8.062424E1,-2.8399815E1,3.4866062E1,-4.1689922E1,-6.785912E0,5.8518578E1,2.3113087E1,1.7657751E2,-2.7593515E1,8.042071E0,4.1881166E0,3.8779495E2,2.3924092E2,4.944147E1,-5.1294724E1,4.244655E1,1.8528755E1,-1.1575431E2,-1.4182196E2,-1.0149728E2,6.938048E1,-5.008506E1,1.0329653E2,-2.7635807E1,-4.690083E1,-1.0335188E2,-2.1846651E1,-6.708939E1,1.2042379E2,-1.4261447E2,4.6257328E1,9.302732E1,3.146906E2,-8.300088E0,-5.472444E1,1.0017255E2,1.7307509E2,4.8618097E2],"split_indices":[4,8,8,4,4,9,8,0,9,4,8,9,9,4,9,9,3,8,8,9,1,1,4,9,1,9,5,0,9,9,4,1,0,4,9,1,9,4,4,1,4,4,4,0,9,3,3,4,1,5,3,1,1,1,0,0,0,0,0,0,0,0,0,0,0,0,0,0,0,0,0,0,0,0,0,0,0,0,0,0,0,0,0,0,0,0,0,0,0,0,0,0,0,0,0,0,0,0,0,0,0],"split_type":[0,0,0,0,0,0,0,0,0,0,0,0,0,0,0,0,0,0,0,0,0,0,0,0,0,0,0,0,0,0,0,0,0,0,0,0,0,0,0,0,0,0,0,0,0,0,0,0,0,0,0,0,0,0,0,0,0,0,0,0,0,0,0,0,0,0,0,0,0,0,0,0,0,0,0,0,0,0,0,0,0,0,0,0,0,0,0,0,0,0,0,0,0,0,0,0,0,0,0,0,0],"sum_hessian":[6.818E3,4.471E3,2.347E3,5.84E2,3.887E3,2.89E2,2.058E3,9.7E1,4.87E2,2.046E3,1.841E3,9.7E1,1.92E2,1.803E3,2.55E2,4.72E2,1.5E1,8.51E2,1.195E3,1.625E3,2.16E2,6E1,3.7E1,3E1,1.62E2,1.325E3,4.78E2,3E0,2.52E2,7.4E1,3.98E2,4E0,1.1E1,7.34E2,1.17E2,1.048E3,1.47E2,3.6E2,1.265E3,8E0,2.08E2,3.2E1,2.8E1,2E0,3.5E1,2.7E1,3E0,9.8E1,6.4E1,9E1,1.235E3,6.9E1,4.09E2,2.5E2,2E0,6.8E1,6E0,3.85E2,1.3E1,1E0,3E0,3.22E2,4.12E2,3.2E1,8.5E1,4.7E1,1.001E3,1.1E2,3.7E1,3.43E2,1.7E1,5.3E2,7.35E2,3E0,5E0,1.1E1,1.97E2,3.1E1,1E0,1E0,2.7E1,1.4E1,2.1E1,1E0,2.6E1,2E0,1E0,7E0,9.1E1,1.5E1,4.9E1,2.8E1,6.2E1,8.96E2,3.39E2,4.8E1,2.1E1,3.3E1,3.76E2,2.44E2,6E0],"tree_param":{"num_deleted":"0","num_feature":"11","num_nodes":"101","size_leaf_vector":"1"}},{"base_weights":[6.4926785E-1,-7.324011E1,1.4137868E2,-2.3247305E2,-4.926261E1,-1.9319695E2,1.8843333E2,-8.3802795E1,-2.2460341E2,-1.2736913E2,1.1101933E1,-2.2318365E2,-1.762398E2,1.538814E2,4.3118045E2,-2.216731E2,-9.352484E1,-1.677274E2,-8.647742E1,-1.2101302E2,2.9783245E1,-2.4278996E2,-8.400236E1,-5.13105E1,-1.957328E2,1.6276573E2,-2.869591E2,3.8022342E2,8.868146E2,-2.2269185E2,-4.145627E1,-2.0760689E2,-1.4499712E2,-5.911752E1,-1.8361824E2,1.3623932E1,-2.5575015E2,-3.1402182E1,7.57845E1,1.5749442E1,-2.467875E2,-1.6409618E2,1.572562E2,-8.847023E1,8.263723E1,-2.3446402E2,-1.3467032E2,1.5791652E2,9.9995105E2,4.9761606E2,-5.141033E2,3.345097E2,1.2682434E3,1.0885054E3,-5.930648E2,-6.7740715E1,-5.0805595E1,2.8569391E1,-6.772785E1,-9.821557E1,-5.6686466E1,-4.5987137E1,-5.8604393E0,-2.3792696E1,2.843721E1,-9.089201E1,-2.7541998E1,-3.035048E1,1.1353769E2,-1.0889478E2,3.5749687E1,-1.738842E1,5.2811172E1,-1.429739E0,4.4959595E1,-6.481832E1,-1.01675415E2,-2.0374277E1,-7.977949E1,-3.1752636E1,8.407091E1,5.8973404E1,-3.2561398E1,-6.2046803E1,-9.504253E1,-2.6075457E1,-5.6722683E1,5.5137627E1,-6.243066E-1,5.37411E2,1.21458466E2,2.2547696E2,-1.9971768E2,1.1391891E2,-1.26509476E2,2.362904E2,6.8619666E2,-1.4693774E2,3.5352673E2],"categories":[],"categories_nodes":[],"categories_segments":[],"categories_sizes":[],"default_left":[0,0,0,0,0,0,0,0,0,0,0,0,0,0,0,0,0,0,0,0,0,0,0,0,0,0,0,0,0,0,0,0,0,0,0,0,0,0,0,0,0,0,0,0,0,0,0,0,0,0,0,0,0,0,0,0,0,0,0,0,0,0,0,0,0,0,0,0,0,0,0,0,0,0,0,0,0,0,0,0,0,0,0,0,0,0,0,0,0,0,0,0,0,0,0,0,0,0,0],"id":6,"left_children":[1,3,5,7,9,11,13,-1,15,17,19,21,23,25,27,29,-1,31,33,35,37,39,41,43,45,47,49,51,53,55,57,59,61,63,65,67,69,71,73,-1,75,77,79,81,-1,83,85,87,89,-1,91,93,95,97,-1,-1,-1,-1,-1,-1,-1,-1,-1,-1,-1,-1,-1,-1,-1,-1,-1,-1,-1,-1,-1,-1,-1,-1,-1,-1,-1,-1,-1,-1,-1,-1,-1,-1,-1,-1,-1,-1,-1,-1,-1,-1,-1,-1,-1],"loss_changes":[7.09171E7,1.7062674E7,3.7001764E7,1.53038E5,1.8332806E7,1.08128E5,1.720328E7,0E0,6.0108E4,2.782788E6,5.418574E6,2.55217E5,4.526535E5,7.112204E6,5.60656E6,8.128E4,0E0,7.4221E5,2.2322965E6,4.9377265E6,5.414868E6,1.168335E5,2.963316E5,3.5222022E5,3.562885E5,7.023688E6,1.6762941E7,8.99373E6,1.6591384E7,4.306E4,1.222672E5,6.24009E5,5.65118E5,2.058555E6,1.9994485E6,5.775877E6,5.510881E6,4.5609905E6,6.5527345E6,0E0,1.73056E5,8.968147E4,1.5908428E5,1.6434314E5,0E0,1.59812E5,1.5503188E5,7.286828E6,3.984393E6,0E0,6.833293E6,7.751576E6,3.585984E6,3.983162E6,0E0,0E0,0E0,0E0,0E0,0E0,0E0,0E0,0E0,0E0,0E0,0E0,0E0,0E0,0E0,0E0,0E0,0E0,0E0,0E0,0E0,0E0,0E0,0E0,0E0,0E0,0E0,0E0,0E0,0E0,0E0,0E0,0E0,0E0,0E0,0E0,0E0,0E0,0E0,0E0,0E0,0E0,0E0,0E0,0E0],"parents":[2147483647,0,0,1,1,2,2,3,3,4,4,5,5,6,6,8,8,9,9,10,10,11,11,12,12,13,13,14,14,15,15,17,17,18,18,19,19,20,20,21,21,22,22,23,23,24,24,25,25,26,26,27,27,28,28,29,29,30,30,31,31,32,32,33,33,34,34,35,35,36,36,37,37,38,38,40,40,41,41,42,42,43,43,45,45,46,46,47,47,48,48,50,50,51,51,52,52,53,53],"right_children":[2,4,6,8,10,12,14,-1,16,18,20,22,24,26,28,30,-1,32,34,36,38,40,42,44,46,48,50,52,54,56,58,60,62,64,66,68,70,72,74,-1,76,78,80,82,-1,84,86,88,90,-1,92,94,96,98,-1,-1,-1,-1,-1,-1,-1,-1,-1,-1,-1,-1,-1,-1,-1,-1,-1,-1,-1,-1,-1,-1,-1,-1,-1,-1,-1,-1,-1,-1,-1,-1,-1,-1,-1,-1,-1,-1,-1,-1,-1,-1,-1,-1,-1],"split_conditions":[1.705422E2,1E0,1E0,4.93008E1,1.005332E2,6.9909185E-2,3E0,-8.3802795E1,1.678474E2,6.25168E1,1.7E1,2.501092E2,8.982696E-2,2.085E1,1.175683E-1,1.669184E2,-9.352484E1,4E0,1.725E1,1.235E1,1.12475E1,1.713448E2,1E1,8.779192E-2,1.395E1,2.075E1,4E0,2.604594E2,2.61491E2,2.3661676E-1,1.1E1,3.62848E1,1.4493477E-1,1.605E1,1.86E1,1.51505E2,1.2E1,2E0,1.289652E2,1.5749442E1,1.535E1,6E0,7.9575E0,2E0,8.263723E1,1.25E1,1E0,2E0,7E0,4.9761606E2,1.75037E2,9.9553086E-2,6.94053E-2,7.235E0,-5.930648E2,-6.7740715E1,-5.0805595E1,2.8569391E1,-6.772785E1,-9.821557E1,-5.6686466E1,-4.5987137E1,-5.8604393E0,-2.3792696E1,2.843721E1,-9.089201E1,-2.7541998E1,-3.035048E1,1.1353769E2,-1.0889478E2,3.5749687E1,-1.738842E1,5.2811172E1,-1.429739E0,4.4959595E1,-6.481832E1,-1.01675415E2,-2.0374277E1,-7.977949E1,-3.1752636E1,8.407091E1,5.8973404E1,-3.2561398E1,-6.2046803E1,-9.504253E1,-2.6075457E1,-5.6722683E1,5.5137627E1,-6.243066E-1,5.37411E2,1.21458466E2,2.2547696E2,-1.9971768E2,1.1391891E2,-1.26509476E2,2.362904E2,6.8619666E2,-1.4693774E2,3.5352673E2],"split_indices":[4,8,8,4,4,9,8,0,4,4,10,4,9,1,9,4,0,5,1,1,1,4,3,9,1,1,3,4,4,9,1,4,9,1,1,4,3,8,4,0,1,3,1,3,0,1,5,8,5,0,4,9,9,1,0,0,0,0,0,0,0,0,0,0,0,0,0,0,0,0,0,0,0,0,0,0,0,0,0,0,0,0,0,0,0,0,0,0,0,0,0,0,0,0,0,0,0,0,0],"split_type":[0,0,0,0,0,0,0,0,0,0,0,0,0,0,0,0,0,0,0,0,0,0,0,0,0,0,0,0,0,0,0,0,0,0,0,0,0,0,0,0,0,0,0,0,0,0,0,0,0,0,0,0,0,0,0,0,0,0,0,0,0,0,0,0,0,0,0,0,0,0,0,0,0,0,0,0,0,0,0,0,0,0,0,0,0,0,0,0,0,0,0,0,0,0,0,0,0,0,0],"sum_hessian":[6.818E3,4.471E3,2.347E3,5.84E2,3.887E3,2.89E2,2.058E3,7.9E1,5.05E2,1.694E3,2.193E3,1E2,1.89E2,1.803E3,2.55E2,4.92E2,1.3E1,8.51E2,8.43E2,2.71E2,1.922E3,8.7E1,1.3E1,2.6E1,1.63E2,1.768E3,3.5E1,2.31E2,2.4E1,4.89E2,3E0,3.06E2,5.45E2,6.59E2,1.84E2,1.36E2,1.35E2,8.25E2,1.097E3,1E0,8.6E1,1E1,3E0,2.4E1,2E0,9.8E1,6.5E1,1.759E3,9E0,3E0,3.2E1,2.21E2,1E1,2.3E1,1E0,4.59E2,3E1,2E0,1E0,3.9E1,2.67E2,5.11E2,3.4E1,5.83E2,7.6E1,7.9E1,1.05E2,1.04E2,3.2E1,1.05E2,3E1,7.32E2,9.3E1,5.26E2,5.71E2,6.7E1,1.9E1,6E0,4E0,1E0,2E0,1E0,2.3E1,7.6E1,2.2E1,3.6E1,2.9E1,1.514E3,2.45E2,3E0,6E0,3E0,2.9E1,2.09E2,1.2E1,8E0,2E0,1E0,2.2E1],"tree_param":{"num_deleted":"0","num_feature":"11","num_nodes":"99","size_leaf_vector":"1"}},{"base_weights":[5.8119804E-1,-4.431822E1,1.19607605E2,-1.1078707E2,-1.2616368E1,-1.340138E2,1.5583257E2,-1.4492627E2,-8.237369E1,-1.5230347E2,7.9231415E0,-2.401556E1,-1.3730002E2,2.1144492E2,6.1547485E1,-1.9694926E2,-1.2838936E2,-1.1697436E2,-5.404981E1,-2.0099754E2,-1.4734412E2,-7.604158E0,1.1963661E2,-4.6740837E1,1.7068726E1,-2.1118732E2,-1.2453627E2,1.2927995E2,3.3751773E2,2.7763718E2,-6.5227844E1,-8.284072E1,-2.0725804E2,-8.6127734E-1,-1.4218828E2,-1.2795742E2,-2.460157E1,-7.127088E1,5.030954E1,-2.0586778E2,-3.8503602E0,-6.646364E1,-1.5287788E2,2.4380221E0,-1.4756662E2,-9.075114E1,1.549978E2,-6.484609E1,6.280387E1,-2.3614235E2,-6.369174E1,-8.418868E1,-1.3928685E2,6.3872936E1,3.679782E2,3.1636963E2,7.135563E2,-6.138778E2,3.5812582E2,-3.8535913E2,2.7068197E1,2.450198E1,-5.6914932E1,-5.4690517E1,-7.318625E1,1.1769016E1,-1.5654999E2,2.2909452E1,-4.473582E1,-3.4614407E1,-6.5320274E1,-3.211642E1,5.9197098E1,-3.494647E1,-2.9436088E0,-5.4785397E1,4.274231E1,-4.838653E1,-7.72579E1,-4.9581036E1,3.5385573E0,-4.316409E1,-5.3165874E1,-1.1369637E1,2.099343E1,-3.379401E1,-1.6008499E2,1.1929282E2,-1.1519922E2,2.5164561E2,3.5801765E1,-2.4495777E1,-4.684964E0,3.1276606E1,1.253296E-1,-2.8129606E1,-7.500978E1,3.913571E1,-3.858331E1,2.2452621E1,-3.76942E1,-6.0995304E1,-3.5871803E1,-3.3420567E1,4.5635708E1,1.9788852E2,-3.1385036E1,1.6992842E2,7.603686E1,-1.0689795E1,-4.2135327E2,2.0371498E2,3.5939125E1,2.1847765E2,-1.2210848E2,6.3339607E1,-6.034595E1],"categories":[],"categories_nodes":[],"categories_segments":[],"categories_sizes":[],"default_left":[0,0,0,0,0,0,0,0,0,0,0,0,0,0,0,0,0,0,0,0,0,0,0,0,0,0,0,0,0,0,0,0,0,0,0,0,0,0,0,0,0,0,0,0,0,0,0,0,0,0,0,0,0,0,0,0,0,0,0,0,0,0,0,0,0,0,0,0,0,0,0,0,0,0,0,0,0,0,0,0,0,0,0,0,0,0,0,0,0,0,0,0,0,0,0,0,0,0,0,0,0,0,0,0,0,0,0,0,0,0,0,0,0,0,0,0,0],"id":7,"left_children":[1,3,5,7,9,11,13,15,17,19,21,23,25,27,29,31,33,35,37,39,41,43,45,-1,47,49,51,53,55,57,59,61,63,65,67,69,71,73,75,77,-1,79,81,83,85,87,89,91,93,95,97,99,101,103,105,107,-1,109,111,113,115,-1,-1,-1,-1,-1,-1,-1,-1,-1,-1,-1,-1,-1,-1,-1,-1,-1,-1,-1,-1,-1,-1,-1,-1,-1,-1,-1,-1,-1,-1,-1,-1,-1,-1,-1,-1,-1,-1,-1,-1,-1,-1,-1,-1,-1,-1,-1,-1,-1,-1,-1,-1,-1,-1,-1,-1],"loss_changes":[3.644751E7,1.0433384E7,1.718299E7,1.539108E6,9.624184E6,8.1289E4,8.559968E6,5.9843E5,8.511995E5,7.4224E4,5.0746395E6,4.5974426E4,1.87778E5,1.0605176E7,1.6674174E7,1.863345E5,9.73019E5,3.955645E5,8.716236E5,3.1264625E4,1.66184E5,3.6111618E6,2.6699905E6,0E0,3.0297285E4,1.02744E5,1.04923E5,9.71872E6,1.6728648E7,1.6365132E7,1.1356421E7,2.9681556E5,1.00223E5,1.169227E6,7.67281E5,3.71171E5,8.079572E5,1.1521445E6,1.5072912E6,4.13685E4,0E0,2.1072634E5,5.5099E4,6.5356465E6,2.2585935E6,7.600116E6,7.3614285E6,1.2069971E3,1.2886428E4,2.9952125E4,9.2399805E4,3.7202966E5,1.5493725E5,7.611398E6,1.853855E7,6.180716E6,0E0,8.636368E6,1.5751134E7,2.3717E6,1.2602652E7,0E0,0E0,0E0,0E0,0E0,0E0,0E0,0E0,0E0,0E0,0E0,0E0,0E0,0E0,0E0,0E0,0E0,0E0,0E0,0E0,0E0,0E0,0E0,0E0,0E0,0E0,0E0,0E0,0E0,0E0,0E0,0E0,0E0,0E0,0E0,0E0,0E0,0E0,0E0,0E0,0E0,0E0,0E0,0E0,0E0,0E0,0E0,0E0,0E0,0E0,0E0,0E0,0E0,0E0,0E0,0E0],"parents":[2147483647,0,0,1,1,2,2,3,3,4,4,5,5,6,6,7,7,8,8,9,9,10,10,11,11,12,12,13,13,14,14,15,15,16,16,17,17,18,18,19,19,20,20,21,21,22,22,24,24,25,25,26,26,27,27,28,28,29,29,30,30,31,31,32,32,33,33,34,34,35,35,36,36,37,37,38,38,39,39,41,41,42,42,43,43,44,44,45,45,46,46,47,47,48,48,49,49,50,50,51,51,52,52,53,53,54,54,55,55,57,57,58,58,59,59,60,60],"right_children":[2,4,6,8,10,12,14,16,18,20,22,24,26,28,30,32,34,36,38,40,42,44,46,-1,48,50,52,54,56,58,60,62,64,66,68,70,72,74,76,78,-1,80,82,84,86,88,90,92,94,96,98,100,102,104,106,108,-1,110,112,114,116,-1,-1,-1,-1,-1,-1,-1,-1,-1,-1,-1,-1,-1,-1,-1,-1,-1,-1,-1,-1,-1,-1,-1,-1,-1,-1,-1,-1,-1,-1,-1,-1,-1,-1,-1,-1,-1,-1,-1,-1,-1,-1,-1,-1,-1,-1,-1,-1,-1,-1,-1,-1,-1,-1,-1,-1],"split_conditions":[1.818608E2,9.12146E1,1E0,5E0,1E0,6.135E0,7E0,4.42428E1,5.38614E1,7.17E0,3E0,5.14625E0,8.31E0,4E0,1.1E1,1E0,1E0,1.2622018E-1,2E0,1.738054E2,8.27E0,1.4E1,2.1811986E-2,-4.6740837E1,4E0,2.591962E2,1.1E1,2.471092E2,1.7514326E-1,1.5302764E-2,1.33E1,7.905E0,3E0,1.97E1,1.141595E-2,1.05296075E-1,1E1,2.6E1,9E0,1.482734E2,-3.8503602E0,1.43447E2,1.66E1,9E0,1.732764E2,1.2540003E-2,2.528566E-2,6.0175E0,2.563672E2,1E0,2.61491E2,4.62622E-2,5.5805027E-2,1.0195E1,7.477855E-2,2.4520854E-2,7.135563E2,2.6E1,4.9922302E-2,1.824608E2,1.775E1,2.450198E1,-5.6914932E1,-5.4690517E1,-7.318625E1,1.1769016E1,-1.5654999E2,2.2909452E1,-4.473582E1,-3.4614407E1,-6.5320274E1,-3.211642E1,5.9197098E1,-3.494647E1,-2.9436088E0,-5.4785397E1,4.274231E1,-4.838653E1,-7.72579E1,-4.9581036E1,3.5385573E0,-4.316409E1,-5.3165874E1,-1.1369637E1,2.099343E1,-3.379401E1,-1.6008499E2,1.1929282E2,-1.1519922E2,2.5164561E2,3.5801765E1,-2.4495777E1,-4.684964E0,3.1276606E1,1.253296E-1,-2.8129606E1,-7.500978E1,3.913571E1,-3.858331E1,2.2452621E1,-3.76942E1,-6.0995304E1,-3.5871803E1,-3.3420567E1,4.5635708E1,1.9788852E2,-3.1385036E1,1.6992842E2,7.603686E1,-1.0689795E1,-4.2135327E2,2.0371498E2,3.5939125E1,2.1847765E2,-1.2210848E2,6.3339607E1,-6.034595E1],"split_indices":[4,4,8,5,8,1,5,4,4,1,8,1,1,5,1,3,0,9,0,4,1,3,9,0,3,4,1,4,9,9,1,1,5,1,9,9,3,10,3,4,0,4,1,3,4,9,9,1,4,0,4,9,9,1,9,9,0,10,9,4,1,0,0,0,0,0,0,0,0,0,0,0,0,0,0,0,0,0,0,0,0,0,0,0,0,0,0,0,0,0,0,0,0,0,0,0,0,0,0,0,0,0,0,0,0,0,0,0,0,0,0,0,0,0,0,0,0],"split_type":[0,0,0,0,0,0,0,0,0,0,0,0,0,0,0,0,0,0,0,0,0,0,0,0,0,0,0,0,0,0,0,0,0,0,0,0,0,0,0,0,0,0,0,0,0,0,0,0,0,0,0,0,0,0,0,0,0,0,0,0,0,0,0,0,0,0,0,0,0,0,0,0,0,0,0,0,0,0,0,0,0,0,0,0,0,0,0,0,0,0,0,0,0,0,0,0,0,0,0,0,0,0,0,0,0,0,0,0,0,0,0,0,0,0,0,0,0],"sum_hessian":[6.818E3,4.951E3,1.867E3,1.598E3,3.353E3,2.33E2,1.634E3,7.24E2,8.74E2,4.29E2,2.924E3,7E0,2.26E2,1.027E3,6.07E2,1.72E2,5.52E2,3.92E2,4.82E2,3.6E1,3.93E2,2.568E3,3.56E2,1E0,6E0,3.1E1,1.95E2,6.23E2,4.04E2,2.24E2,3.83E2,1.5E1,1.57E2,5.4E1,4.98E2,3.5E2,4.2E1,4.14E2,6.8E1,3.5E1,1E0,2.6E1,3.67E2,2.397E3,1.71E2,5.1E1,3.05E2,2E0,4E0,2.6E1,5E0,5.4E1,1.41E2,4.9E2,1.33E2,4.01E2,3E0,1.8E1,2.06E2,8.5E1,2.98E2,6E0,9E0,9.7E1,6E1,5.1E1,3E0,1.5E1,4.83E2,3.09E2,4.1E1,3.1E1,1.1E1,2.38E2,1.76E2,1.9E1,4.9E1,2.1E1,1.4E1,1.1E1,1.5E1,2.73E2,9.4E1,1.501E3,8.96E2,1.58E2,1.3E1,1.9E1,3.2E1,1.4E1,2.91E2,1E0,1E0,2E0,2E0,3E0,2.3E1,1E0,4E0,1.1E1,4.3E1,3.1E1,1.1E2,1.64E2,3.26E2,8.2E1,5.1E1,7.9E1,3.22E2,1.1E1,7E0,8.7E1,1.19E2,1E0,8.4E1,1.65E2,1.33E2],"tree_param":{"num_deleted":"0","num_feature":"11","num_nodes":"117","size_leaf_vector":"1"}},{"base_weights":[4.3202463E-1,-6.4520226E1,4.5644886E1,-4.8248175E2,-6.2396755E1,-1.0134201E2,6.7361084E1,-7.272367E2,-3.493578E1,-1.2472593E2,-5.3214077E1,1.5509987E2,-1.0263655E2,4.1518623E1,1.538145E2,-2.3773167E2,-3.0842798E1,-1.9454263E2,1.1446478E2,-1.336362E2,-9.16792E1,-1.2205795E2,-4.3570995E1,7.144989E1,-1.6549485E0,-1.09970795E2,-7.323079E1,4.9301697E1,-1.7002977E2,9.5520004E1,3.1987332E2,-7.271329E1,-2.455804E1,-9.419147E1,-1.4447208E2,8.513862E0,-1.21383934E2,-1.0084749E2,-3.153258E2,-3.0013912E1,-1.00128586E2,-1.0705345E2,-2.0632373E2,-9.974397E1,-2.5124964E1,7.0682274E1,-4.971882E1,3.191734E2,-5.901089E2,-4.608856E1,2.170419E2,5.999332E2,6.2365448E1,-3.8764194E1,-1.9300594E1,-3.3419937E1,-4.5130356E1,-2.0791782E1,2.5644684E1,-4.480104E1,-2.2547508E1,-3.980278E1,1.9695107E1,3.439341E1,-1.05426476E2,-2.3213007E1,1.1158692E-1,-4.4590134E1,-7.3072267E0,-3.2574493E1,7.5633354E1,1.0018772E1,-7.009059E1,2.0770477E1,-3.3416084E1,-4.750707E1,4.309726E0,1.6505646E1,8.777397E1,-1.9855983E2,-9.589061E0,-1.5962972E1,2.4946533E2,-2.4138759E2,-2.1980543E0,-1.7210715E2,1.8684562E0,1.6495721E2,4.6152317E1,8.977444E1,2.927467E2,-1.919137E2,9.29702E1],"categories":[],"categories_nodes":[],"categories_segments":[],"categories_sizes":[],"default_left":[0,0,0,0,0,0,0,0,0,0,0,0,0,0,0,0,0,0,0,0,0,0,0,0,0,0,0,0,0,0,0,0,0,0,0,0,0,0,0,0,0,0,0,0,0,0,0,0,0,0,0,0,0,0,0,0,0,0,0,0,0,0,0,0,0,0,0,0,0,0,0,0,0,0,0,0,0,0,0,0,0,0,0,0,0,0,0,0,0,0,0,0,0],"id":8,"left_children":[1,3,5,7,9,11,13,15,17,19,21,23,25,27,29,-1,-1,31,-1,33,35,37,39,-1,-1,41,43,45,47,49,51,-1,-1,53,55,57,59,61,63,65,67,69,71,73,75,77,79,81,83,85,87,89,91,-1,-1,-1,-1,-1,-1,-1,-1,-1,-1,-1,-1,-1,-1,-1,-1,-1,-1,-1,-1,-1,-1,-1,-1,-1,-1,-1,-1,-1,-1,-1,-1,-1,-1,-1,-1,-1,-1,-1,-1],"loss_changes":[2.0028146E7,2.454086E6,1.2841845E7,1.5081402E6,1.587926E6,1.87882E5,7.82214E6,2.849565E5,4.7307078E5,9.2869E4,1.607879E6,4.1339336E4,1.03232E5,4.452278E6,7.771782E6,0E0,0E0,7.10975E3,0E0,1.05642E5,2.3615394E5,1.189792E6,1.632485E6,0E0,0E0,9.34425E4,1.326905E5,5.5164845E6,1.9916732E7,1.030071E7,1.5035168E7,0E0,0E0,5.7562062E4,2.6032E4,1.1972809E5,6.759644E4,1.4395392E6,4.90372E5,2.4782608E6,1.510601E6,2.47472E5,7.982072E4,1.4149619E5,2.0747047E5,7.428818E6,5.0111215E6,8.630288E6,6.494952E6,7.649442E6,6.688428E6,1.1010412E7,1.9315032E7,0E0,0E0,0E0,0E0,0E0,0E0,0E0,0E0,0E0,0E0,0E0,0E0,0E0,0E0,0E0,0E0,0E0,0E0,0E0,0E0,0E0,0E0,0E0,0E0,0E0,0E0,0E0,0E0,0E0,0E0,0E0,0E0,0E0,0E0,0E0,0E0,0E0,0E0,0E0,0E0],"parents":[2147483647,0,0,1,1,2,2,3,3,4,4,5,5,6,6,7,7,8,8,9,9,10,10,11,11,12,12,13,13,14,14,17,17,19,19,20,20,21,21,22,22,25,25,26,26,27,27,28,28,29,29,30,30,33,33,34,34,35,35,36,36,37,37,38,38,39,39,40,40,41,41,42,42,43,43,44,44,45,45,46,46,47,47,48,48,49,49,50,50,51,51,52,52],"right_children":[2,4,6,8,10,12,14,16,18,20,22,24,26,28,30,-1,-1,32,-1,34,36,38,40,-1,-1,42,44,46,48,50,52,-1,-1,54,56,58,60,62,64,66,68,70,72,74,76,78,80,82,84,86,88,90,92,-1,-1,-1,-1,-1,-1,-1,-1,-1,-1,-1,-1,-1,-1,-1,-1,-1,-1,-1,-1,-1,-1,-1,-1,-1,-1,-1,-1,-1,-1,-1,-1,-1,-1,-1,-1,-1,-1,-1,-1],"split_conditions":[1.20444E2,5.14625E0,1E0,1E0,1E0,1.209072E2,2.201798E2,9E0,2.6E1,1.065622E2,1.7E1,2E0,2.187166E2,2.140218E2,3.7E1,-2.3773167E2,-3.0842798E1,2E0,1.1446478E2,4E0,9.961667E0,1.97E1,1.725E1,7.144989E1,-1.6549485E0,2.155218E2,9E0,1.81E1,5.5216312E-2,5.765413E-2,5.701106E-2,-7.271329E1,-2.455804E1,1E0,3.454372E-2,8.21E0,1E0,1.10957E2,3.71506E1,6.66142E1,1.95E1,2.140218E2,9.1175E0,6.48E0,8E0,1.725E1,1.0593469E-2,3.3929132E-2,8E0,6.86E0,6.6433795E-2,3.305217E-2,6.94053E-2,-3.8764194E1,-1.9300594E1,-3.3419937E1,-4.5130356E1,-2.0791782E1,2.5644684E1,-4.480104E1,-2.2547508E1,-3.980278E1,1.9695107E1,3.439341E1,-1.05426476E2,-2.3213007E1,1.1158692E-1,-4.4590134E1,-7.3072267E0,-3.2574493E1,7.5633354E1,1.0018772E1,-7.009059E1,2.0770477E1,-3.3416084E1,-4.750707E1,4.309726E0,1.6505646E1,8.777397E1,-1.9855983E2,-9.589061E0,-1.5962972E1,2.4946533E2,-2.4138759E2,-2.1980543E0,-1.7210715E2,1.8684562E0,1.6495721E2,4.6152317E1,8.977444E1,2.927467E2,-1.919137E2,9.29702E1],"split_indices":[4,1,8,2,8,4,4,5,10,4,10,0,4,4,10,0,0,6,0,3,1,1,1,0,0,4,3,1,9,9,9,0,0,5,9,1,2,4,4,4,1,4,1,1,1,1,9,9,5,1,9,9,9,0,0,0,0,0,0,0,0,0,0,0,0,0,0,0,0,0,0,0,0,0,0,0,0,0,0,0,0,0,0,0,0,0,0,0,0,0,0,0,0],"split_type":[0,0,0,0,0,0,0,0,0,0,0,0,0,0,0,0,0,0,0,0,0,0,0,0,0,0,0,0,0,0,0,0,0,0,0,0,0,0,0,0,0,0,0,0,0,0,0,0,0,0,0,0,0,0,0,0,0,0,0,0,0,0,0,0,0,0,0,0,0,0,0,0,0,0,0,0,0,0,0,0,0,0,0,0,0,0,0,0,0,0,0,0,0],"sum_hessian":[6.818E3,2.798E3,4.02E3,1.3E1,2.785E3,5.17E2,3.503E3,8E0,5E0,3.56E2,2.429E3,2E0,5.15E2,2.698E3,8.05E2,7E0,1E0,4E0,1E0,2.78E2,7.8E1,2.97E2,2.132E3,1E0,1E0,4.1E2,1.05E2,2.603E3,9.5E1,5.97E2,2.08E2,2E0,2E0,6.2E1,2.16E2,1.8E1,6E1,2.69E2,2.8E1,1.721E3,4.11E2,4E2,1E1,6.7E1,3.8E1,2.141E3,4.62E2,4.4E1,5.1E1,2.76E2,3.21E2,9.9E1,1.09E2,2.7E1,3.5E1,3.6E1,1.8E2,9E0,9E0,3.6E1,2.4E1,2.26E2,4.3E1,2E0,2.6E1,6.72E2,1.049E3,2.5E2,1.61E2,3.99E2,1E0,1E0,9E0,4E0,6.3E1,8E0,3E1,2.001E3,1.4E2,1.2E1,4.5E2,2.6E1,1.8E1,3.7E1,1.4E1,2.4E1,2.52E2,5E1,2.71E2,5.6E1,4.3E1,2.8E1,8.1E1],"tree_param":{"num_deleted":"0","num_feature":"11","num_nodes":"93","size_leaf_vector":"1"}},{"base_weights":[2.4241848E-1,-2.5063534E1,6.491892E1,-3.48777E1,5.5448627E1,9.062656E1,-5.7715405E1,-2.3125017E0,-5.3854557E1,1.1614889E2,-3.4871517E1,-5.987178E1,1.1201464E2,-1.0958659E2,4.016691E2,-7.97932E1,3.5145767E1,5.510274E1,-6.745783E1,7.54232E1,5.2080493E2,6.429269E2,-7.107108E1,-6.411554E1,1.8100761E1,-1.7000774E2,1.26436356E2,-2.3117136E1,-3.8815546E2,9.3515985E2,-6.8726746E1,-6.7701256E1,-4.3714642E2,1.493542E2,-1.7160122E0,6.404561E2,2.494778E1,-5.740434E1,-2.1325189E2,5.3549618E1,5.3906226E2,-4.8423E2,8.0404144E2,3.809296E2,4.89435E2,-3.87063E1,-4.2671066E2,-1.22684845E2,-5.6015892E1,6.1434856E1,-4.6137802E1,3.8914255E2,-4.1109415E2,2.9985638E2,1.05477776E2,-2.5149016E2,1.027198E2,-2.4775426E2,-1.2198273E3,-1.6015962E2,1.313613E3,-1.9660742E2,3.3496884E2,-2.6970366E1,7.980791E1,-2.004843E2,4.8915094E2,1.4190675E1,1.2513506E2,-4.871355E1,6.152402E0,2.980219E2,8.843324E1,-3.917552E0,8.184322E1,-2.011369E1,9.48315E1,1.5772692E1,-1.0553498E2,-2.2047818E2,1.9434841E1,-3.054604E1,2.857024E2,-2.4209917E2,2.1785597E2,3.4814594E2,-2.8061554E0,-6.8462224E0,1.6716768E2,-1.0195534E2,2.1468856E0,3.9922894E1,-2.8172562E2,-4.8243847E0,-5.1408333E1,3.6779533E1,-1.8685638E1,3.8095287E1,-2.509533E1,-1.53203E2,1.7024501E2,-1.8398029E2,7.395951E1,2.4844191E2,6.345565E1,3.4643875E1,-1.0298248E2,-5.884263E1,-3.193866E2,-4.2080894E1,8.470642E1,2.5050703E1,-1.6827502E2,-4.21491E2,-1.7726125E2,9.985595E1,-1.0998783E2,9.047296E1,4.1346008E2,9.4607735E1,-1.6532199E2],"categories":[],"categories_nodes":[],"categories_segments":[],"categories_sizes":[],"default_left":[0,0,0,0,0,0,0,0,0,0,0,0,0,0,0,0,0,0,0,0,0,0,0,0,0,0,0,0,0,0,0,0,0,0,0,0,0,0,0,0,0,0,0,0,0,0,0,0,0,0,0,0,0,0,0,0,0,0,0,0,0,0,0,0,0,0,0,0,0,0,0,0,0,0,0,0,0,0,0,0,0,0,0,0,0,0,0,0,0,0,0,0,0,0,0,0,0,0,0,0,0,0,0,0,0,0,0,0,0,0,0,0,0,0,0,0,0,0,0,0,0],"id":9,"left_children":[1,3,5,7,9,11,13,15,17,19,21,23,25,27,29,31,33,35,37,39,41,43,45,47,49,51,53,55,57,59,61,63,65,67,69,71,73,75,77,79,81,83,85,87,-1,89,91,93,95,-1,97,99,101,103,105,107,109,111,113,115,117,119,-1,-1,-1,-1,-1,-1,-1,-1,-1,-1,-1,-1,-1,-1,-1,-1,-1,-1,-1,-1,-1,-1,-1,-1,-1,-1,-1,-1,-1,-1,-1,-1,-1,-1,-1,-1,-1,-1,-1,-1,-1,-1,-1,-1,-1,-1,-1,-1,-1,-1,-1,-1,-1,-1,-1,-1,-1,-1,-1],"loss_changes":[1.1162287E7,3.8752982E6,6.0519915E6,2.7004705E6,2.9261995E6,5.111834E6,7.9790145E6,4.6754955E6,4.0960045E6,5.217805E6,5.320935E6,6.6678E4,5.670902E6,7.2173365E6,8.596633E6,2.238979E6,4.572236E6,5.4029735E6,3.586148E6,2.922295E6,8.644557E6,2.2274265E6,2.3430742E6,8.2313125E4,1.4136231E5,9.326615E6,4.773362E6,6.635518E6,7.988291E6,6.842821E6,3.0994615E6,3.7949642E6,9.214022E6,7.2215805E6,2.938335E6,1.5372765E6,2.7637252E6,8.296551E6,5.836917E6,2.5187425E6,3.5401898E6,3.3208095E6,6.679261E6,7.245119E5,0E0,2.612764E6,5.000921E6,1.1140366E5,1.9464853E5,0E0,6.90718E4,3.6597642E6,6.5330045E6,6.451584E6,5.340369E6,3.481615E6,6.5433655E6,6.478541E6,3.34311E5,6.3098575E5,3.68742E5,3.4403302E6,0E0,0E0,0E0,0E0,0E0,0E0,0E0,0E0,0E0,0E0,0E0,0E0,0E0,0E0,0E0,0E0,0E0,0E0,0E0,0E0,0E0,0E0,0E0,0E0,0E0,0E0,0E0,0E0,0E0,0E0,0E0,0E0,0E0,0E0,0E0,0E0,0E0,0E0,0E0,0E0,0E0,0E0,0E0,0E0,0E0,0E0,0E0,0E0,0E0,0E0,0E0,0E0,0E0,0E0,0E0,0E0,0E0,0E0,0E0],"parents":[2147483647,0,0,1,1,2,2,3,3,4,4,5,5,6,6,7,7,8,8,9,9,10,10,11,11,12,12,13,13,14,14,15,15,16,16,17,17,18,18,19,19,20,20,21,21,22,22,23,23,24,24,25,25,26,26,27,27,28,28,29,29,30,30,31,31,32,32,33,33,34,34,35,35,36,36,37,37,38,38,39,39,40,40,41,41,42,42,43,43,45,45,46,46,47,47,48,48,50,50,51,51,52,52,53,53,54,54,55,55,56,56,57,57,58,58,59,59,60,60,61,61],"right_children":[2,4,6,8,10,12,14,16,18,20,22,24,26,28,30,32,34,36,38,40,42,44,46,48,50,52,54,56,58,60,62,64,66,68,70,72,74,76,78,80,82,84,86,88,-1,90,92,94,96,-1,98,100,102,104,106,108,110,112,114,116,118,120,-1,-1,-1,-1,-1,-1,-1,-1,-1,-1,-1,-1,-1,-1,-1,-1,-1,-1,-1,-1,-1,-1,-1,-1,-1,-1,-1,-1,-1,-1,-1,-1,-1,-1,-1,-1,-1,-1,-1,-1,-1,-1,-1,-1,-1,-1,-1,-1,-1,-1,-1,-1,-1,-1,-1,-1,-1,-1,-1],"split_conditions":[1.805976E2,3E0,2E0,2.2E1,9E0,1E0,9E0,2E0,2E0,1.72108E2,7.17E0,2.604594E2,1.405025E-2,7E0,1.475E1,1.780344E2,3.1288337E-2,5.48E0,1.732764E2,1.5630798E-1,8.985E0,2E0,1.4117484E-1,2E0,2.61491E2,3E0,1.858266E2,1.965768E2,2.563672E2,9E0,2.51904E2,1.713448E2,1.2622018E-1,1.509024E2,2E0,4.190765E-2,1.581604E2,1.705422E2,2E0,6.2575E0,1.092228E2,7E0,1.780344E2,6.59E0,4.89435E2,1.8410515E-2,1.170834E2,8.080402E-2,3E0,6.1434856E1,1E0,4E0,2.27372E2,7.55E0,1.5E1,1.953452E2,3E0,5.2917346E-2,8.208579E-2,2.4520854E-2,7.570599E-3,1.976768E2,3.3496884E2,-2.6970366E1,7.980791E1,-2.004843E2,4.8915094E2,1.4190675E1,1.2513506E2,-4.871355E1,6.152402E0,2.980219E2,8.843324E1,-3.917552E0,8.184322E1,-2.011369E1,9.48315E1,1.5772692E1,-1.0553498E2,-2.2047818E2,1.9434841E1,-3.054604E1,2.857024E2,-2.4209917E2,2.1785597E2,3.4814594E2,-2.8061554E0,-6.8462224E0,1.6716768E2,-1.0195534E2,2.1468856E0,3.9922894E1,-2.8172562E2,-4.8243847E0,-5.1408333E1,3.6779533E1,-1.8685638E1,3.8095287E1,-2.509533E1,-1.53203E2,1.7024501E2,-1.8398029E2,7.395951E1,2.4844191E2,6.345565E1,3.4643875E1,-1.0298248E2,-5.884263E1,-3.193866E2,-4.2080894E1,8.470642E1,2.5050703E1,-1.6827502E2,-4.21491E2,-1.7726125E2,9.985595E1,-1.0998783E2,9.047296E1,4.1346008E2,9.4607735E1,-1.6532199E2],"split_indices":[4,8,0,10,3,8,5,6,3,4,1,4,9,5,1,4,9,1,4,9,1,0,9,3,4,5,4,4,4,3,4,4,9,4,3,9,4,4,6,1,4,3,4,1,0,9,4,9,3,0,3,3,4,1,3,4,5,9,9,9,9,4,0,0,0,0,0,0,0,0,0,0,0,0,0,0,0,0,0,0,0,0,0,0,0,0,0,0,0,0,0,0,0,0,0,0,0,0,0,0,0,0,0,0,0,0,0,0,0,0,0,0,0,0,0,0,0,0,0,0,0],"split_type":[0,0,0,0,0,0,0,0,0,0,0,0,0,0,0,0,0,0,0,0,0,0,0,0,0,0,0,0,0,0,0,0,0,0,0,0,0,0,0,0,0,0,0,0,0,0,0,0,0,0,0,0,0,0,0,0,0,0,0,0,0,0,0,0,0,0,0,0,0,0,0,0,0,0,0,0,0,0,0,0,0,0,0,0,0,0,0,0,0,0,0,0,0,0,0,0,0,0,0,0,0,0,0,0,0,0,0,0,0,0,0,0,0,0,0,0,0,0,0,0,0],"sum_hessian":[6.818E3,4.901E3,1.917E3,4.369E3,5.32E2,1.585E3,3.32E2,1.609E3,2.76E3,3.18E2,2.14E2,1.97E2,1.388E3,2.99E2,3.3E1,5.24E2,1.085E3,3.06E2,2.454E3,2.9E2,2.8E1,1E1,2.04E2,1.87E2,1E1,6.7E1,1.321E3,2.29E2,7E1,1.5E1,1.8E1,5.08E2,1.6E1,2.64E2,8.21E2,1.4E1,2.92E2,2.297E3,1.57E2,2.78E2,1.2E1,6E0,2.2E1,9E0,1E0,1.88E2,1.6E1,2.1E1,1.66E2,2E0,8E0,2E1,4.7E1,1.41E2,1.18E3,8.1E1,1.48E2,6.1E1,9E0,4E0,1.1E1,1.7E1,1E0,4.77E2,3.1E1,1.5E1,1E0,1.92E2,7.2E1,9.9E1,7.22E2,6E0,8E0,2.54E2,3.8E1,2.24E3,5.7E1,5.4E1,1.03E2,3E0,2.75E2,5E0,7E0,5E0,1E0,1.5E1,7E0,3E0,6E0,2.4E1,1.64E2,8E0,8E0,7E0,1.4E1,5E0,1.61E2,1E0,7E0,3E0,1.7E1,3.6E1,1.1E1,1.9E1,1.22E2,1.155E3,2.5E1,7.7E1,4E0,6.3E1,8.5E1,3E1,3.1E1,6E0,3E0,1E0,3E0,1E0,1E1,7E0,1E1],"tree_param":{"num_deleted":"0","num_feature":"11","num_nodes":"121","size_leaf_vector":"1"}},{"base_weights":[3.8062912E-1,-1.9738451E1,4.5414326E1,-1.6903784E1,-4.77101E2,-6.194201E1,5.8480984E1,-3.4372257E1,9.002554E0,-6.408599E2,4.3711365E2,-2.1613608E2,2.9874185E2,1.7599829E2,1.9903944E1,-3.4394623E2,-3.280427E1,-4.373724E1,5.232493E1,-1.1210018E3,-2.7289358E1,2.7753268E2,-5.897584E1,-1.5715564E2,-5.1408136E2,-2.3046683E2,4.7618442E2,2.6053293E2,-7.694231E1,1.0652307E2,-6.221501E1,-1.6308395E2,-2.2659929E2,-5.1654434E1,-1.3753783E1,-4.906248E1,6.061045E2,-1.6242642E2,7.265752E1,-2.6419662E2,-1.2417863E3,-5.2430664E2,2.8675763E2,-4.6755148E2,2.6279856E1,-8.014538E2,7.812918E2,5.631386E2,-2.1241512E2,1.2878207E2,4.916433E2,4.8447918E1,-6.524618E2,5.360651E1,3.3151416E2,-7.7697705E2,-4.6065563E1,-8.8707275E1,-9.8890084E-1,-1.2282162E1,-5.854562E1,9.061454E-1,-2.957717E1,-2.2855918E0,-3.3124775E1,4.138301E1,2.7682187E2,-1.04407524E2,1.0021531E2,4.1953888E1,7.510652E0,-1.072292E2,-1.1659278E1,-4.2781532E1,-3.9862436E2,-1.7944102E2,-3.4347984E1,-1.0747241E2,2.236216E2,-3.7279825E2,-7.7911E1,-1.3776131E1,2.5598947E2,1.584732E2,-2.911073E2,3.1386964E0,3.2625934E2,1.0038917E2,2.6332315E2,7.727176E1,-8.675377E1,2.870106E2,7.4317406E1,-8.51097E1,1.09902E2,-3.066522E2,2.2827614E1,9.0888016E1,-2.86473E0,-1.15541626E2,1.3695839E2,-3.0445442E1,-2.7751602E2,2.3847492E1,-3.514782E1],"categories":[],"categories_nodes":[],"categories_segments":[],"categories_sizes":[],"default_left":[0,0,0,0,0,0,0,0,0,0,0,0,0,0,0,0,0,0,0,0,0,0,0,0,0,0,0,0,0,0,0,0,0,0,0,0,0,0,0,0,0,0,0,0,0,0,0,0,0,0,0,0,0,0,0,0,0,0,0,0,0,0,0,0,0,0,0,0,0,0,0,0,0,0,0,0,0,0,0,0,0,0,0,0,0,0,0,0,0,0,0,0,0,0,0,0,0,0,0,0,0,0,0,0,0],"id":10,"left_children":[1,3,5,7,9,11,13,15,17,19,21,23,25,27,29,31,33,35,37,39,41,-1,-1,43,-1,45,47,49,51,53,55,57,-1,59,61,63,65,67,69,71,73,75,77,79,81,83,85,87,-1,89,91,93,95,97,99,101,103,-1,-1,-1,-1,-1,-1,-1,-1,-1,-1,-1,-1,-1,-1,-1,-1,-1,-1,-1,-1,-1,-1,-1,-1,-1,-1,-1,-1,-1,-1,-1,-1,-1,-1,-1,-1,-1,-1,-1,-1,-1,-1,-1,-1,-1,-1,-1,-1],"loss_changes":[6.1791595E6,6.103499E6,2.957895E6,2.1209315E6,4.621741E6,1.2800474E7,8.510354E6,1.3473725E6,4.316015E6,7.334431E6,1.7280758E6,1.3950429E7,6.5891305E6,9.941407E6,1.0071624E7,9.18473E5,9.9975525E5,2.978138E6,4.539812E6,1.120768E6,2.0233904E6,0E0,0E0,8.894555E6,0E0,1.1024787E7,5.753387E6,1.0532934E7,8.474859E6,8.185294E6,8.3559795E6,2.3210375E5,0E0,2.1443965E6,1.9741028E6,2.1503012E6,9.103675E5,8.409357E6,3.029781E6,4.9134656E4,9.57552E5,8.28E4,2.6336532E6,9.021369E6,5.950569E6,3.207678E6,1.64103E6,3.228882E6,0E0,1.2078445E7,1.4056E7,1.0345858E7,5.734237E6,8.806068E6,1.1912309E7,1.506512E6,6.364868E6,0E0,0E0,0E0,0E0,0E0,0E0,0E0,0E0,0E0,0E0,0E0,0E0,0E0,0E0,0E0,0E0,0E0,0E0,0E0,0E0,0E0,0E0,0E0,0E0,0E0,0E0,0E0,0E0,0E0,0E0,0E0,0E0,0E0,0E0,0E0,0E0,0E0,0E0,0E0,0E0,0E0,0E0,0E0,0E0,0E0,0E0,0E0,0E0],"parents":[2147483647,0,0,1,1,2,2,3,3,4,4,5,5,6,6,7,7,8,8,9,9,10,10,11,11,12,12,13,13,14,14,15,15,16,16,17,17,18,18,19,19,20,20,23,23,25,25,26,26,27,27,28,28,29,29,30,30,31,31,33,33,34,34,35,35,36,36,37,37,38,38,39,39,40,40,41,41,42,42,43,43,44,44,45,45,46,46,47,47,49,49,50,50,51,51,52,52,53,53,54,54,55,55,56,56],"right_children":[2,4,6,8,10,12,14,16,18,20,22,24,26,28,30,32,34,36,38,40,42,-1,-1,44,-1,46,48,50,52,54,56,58,-1,60,62,64,66,68,70,72,74,76,78,80,82,84,86,88,-1,90,92,94,96,98,100,102,104,-1,-1,-1,-1,-1,-1,-1,-1,-1,-1,-1,-1,-1,-1,-1,-1,-1,-1,-1,-1,-1,-1,-1,-1,-1,-1,-1,-1,-1,-1,-1,-1,-1,-1,-1,-1,-1,-1,-1,-1,-1,-1,-1,-1,-1,-1,-1,-1],"split_conditions":[1.76437E2,1.756054E2,1.7E1,1.20444E2,1E1,7.654763E-2,2.2E1,5.14625E0,5E0,2.6E1,2.025E1,7.426848E-2,9.203333E0,9.1237456E-2,2E0,1.151808E2,5.8198143E-2,2.12E1,6.175E0,7.35E0,1.12475E1,2.7753268E2,-5.897584E1,3.0504756E-2,-5.1408136E2,1.23531975E-1,1.5894721E-1,5.701106E-2,2.406222E2,2.471092E2,1.0593469E-2,1E0,-2.2659929E2,5.4223944E-2,1.76E1,1.544998E2,1.471392E2,1E0,7E0,2E0,2E0,7.55E0,1E0,5E0,7.113587E-2,4E0,5E0,1.1372034E-1,-2.1241512E2,4.190765E-2,6.783685E-2,1.965768E2,3E0,1.84595E2,4E0,5E0,1.085E1,-8.8707275E1,-9.8890084E-1,-1.2282162E1,-5.854562E1,9.061454E-1,-2.957717E1,-2.2855918E0,-3.3124775E1,4.138301E1,2.7682187E2,-1.04407524E2,1.0021531E2,4.1953888E1,7.510652E0,-1.072292E2,-1.1659278E1,-4.2781532E1,-3.9862436E2,-1.7944102E2,-3.4347984E1,-1.0747241E2,2.236216E2,-3.7279825E2,-7.7911E1,-1.3776131E1,2.5598947E2,1.584732E2,-2.911073E2,3.1386964E0,3.2625934E2,1.0038917E2,2.6332315E2,7.727176E1,-8.675377E1,2.870106E2,7.4317406E1,-8.51097E1,1.09902E2,-3.066522E2,2.2827614E1,9.0888016E1,-2.86473E0,-1.15541626E2,1.3695839E2,-3.0445442E1,-2.7751602E2,2.3847492E1,-3.514782E1],"split_indices":[4,4,10,4,3,9,10,1,5,10,1,9,1,9,6,4,9,1,1,1,1,0,0,9,0,9,9,9,4,4,9,0,0,9,1,4,4,2,5,0,3,1,7,3,9,3,3,9,0,9,9,4,5,4,3,5,1,0,0,0,0,0,0,0,0,0,0,0,0,0,0,0,0,0,0,0,0,0,0,0,0,0,0,0,0,0,0,0,0,0,0,0,0,0,0,0,0,0,0,0,0,0,0,0,0],"split_type":[0,0,0,0,0,0,0,0,0,0,0,0,0,0,0,0,0,0,0,0,0,0,0,0,0,0,0,0,0,0,0,0,0,0,0,0,0,0,0,0,0,0,0,0,0,0,0,0,0,0,0,0,0,0,0,0,0,0,0,0,0,0,0,0,0,0,0,0,0,0,0,0,0,0,0,0,0,0,0,0,0,0,0,0,0,0,0,0,0,0,0,0,0,0,0,0,0,0,0,0,0,0,0,0,0],"sum_hessian":[6.818E3,4.713E3,2.105E3,4.685E3,2.8E1,2.28E2,1.877E3,2.798E3,1.887E3,2.4E1,4E0,1.6E2,6.8E1,4.63E2,1.414E3,1.3E1,2.785E3,8.51E2,1.036E3,1.3E1,1.1E1,2E0,2E0,1.55E2,5E0,1.7E1,5.1E1,3.47E2,1.16E2,6.88E2,7.26E2,1E1,3E0,1.399E3,1.386E3,8.45E2,6E0,8.9E1,9.47E2,2E0,1.1E1,4E0,7E0,5.7E1,9.8E1,1.1E1,6E0,4.8E1,3E0,2.22E2,1.25E2,9.6E1,2E1,5.58E2,1.3E2,1.5E1,7.11E2,5E0,5E0,1.303E3,9.6E1,1.158E3,2.28E2,5.05E2,3.4E2,3E0,3E0,6.5E1,2.4E1,3.92E2,5.55E2,1E0,1E0,1E0,1E1,3E0,1E0,3E0,4E0,1.1E1,4.6E1,9.1E1,7E0,1E0,1E1,2E0,4E0,2.9E1,1.9E1,1.7E2,5.2E1,4.2E1,8.3E1,4.7E1,4.9E1,1.3E1,7E0,1.12E2,4.46E2,1.9E1,1.11E2,3E0,1.2E1,2.57E2,4.54E2],"tree_param":{"num_deleted":"0","num_feature":"11","num_nodes":"105","size_leaf_vector":"1"}},{"base_weights":[1.170432E-1,-1.195026E1,4.4111652E1,-6.721445E1,-5.657821E0,2.769173E2,3.0316286E1,-5.1172676E1,-6.3275104E2,-4.6990456E1,6.406919E0,1.3040542E3,1.636638E2,3.9337364E1,-4.255356E2,-5.8053017E0,-2.0235007E2,-1.4701007E3,-1.946147E2,-4.0912518E1,-1.6238896E2,4.2331863E1,-1.0942657E1,2.3590815E1,1.4678802E3,-2.959518E2,4.135813E2,2.6026272E1,4.1092773E2,-1.3405023E2,-9.936119E2,3.116541E2,-4.5688713E1,2.1514872E1,-3.508757E2,-1.343137E2,-6.0073663E2,-4.3539706E2,5.9260394E2,-9.457712E1,-3.1186583E1,-2.3197154E2,3.3794717E2,3.876587E1,8.954099E2,2.7043394E1,-4.7060753E1,1.899796E2,5.0252194E2,-6.399085E2,2.6252234E2,1.0561483E3,1.997817E2,7.775235E1,-4.7197273E1,4.8817432E2,-4.7136227E2,1.8820396E2,-7.133723E2,-3.7138364E2,-9.22963E1,6.95112E1,4.1411148E2,-2.6945475E1,1.5057699E1,1.8996631E2,-1.1675415E0,-1.8910909E2,-4.702596E1,-4.086884E1,-1.9424557E2,2.3526358E2,3.1408192E1,-2.0051432E1,-4.4951008E1,-2.354354E1,-5.7297344E0,-1.2121517E2,-1.2917125E1,2.5449237E2,-1.0757599E1,1.3975966E1,-8.774517E1,3.3138452E2,8.7884035E0,-1.0142656E1,3.998086E1,-2.7013477E1,7.690495E0,-6.653252E1,-3.61668E2,1.095789E2,-3.9962135E1,4.0827542E2,-9.353995E1,-3.906434E1,1.19311516E2,6.3948704E1,7.805089E0,-5.3700512E1,5.0052614E0,2.2382321E2,1.3662937E1,-7.344911E1,2.2026474E2,-4.3503476E2,-3.8595528E1,4.6591297E1,-8.812463E1],"categories":[],"categories_nodes":[],"categories_segments":[],"categories_sizes":[],"default_left":[0,0,0,0,0,0,0,0,0,0,0,0,0,0,0,0,0,0,0,0,0,0,0,0,0,0,0,0,0,0,0,0,0,0,0,0,0,0,0,0,0,0,0,0,0,0,0,0,0,0,0,0,0,0,0,0,0,0,0,0,0,0,0,0,0,0,0,0,0,0,0,0,0,0,0,0,0,0,0,0,0,0,0,0,0,0,0,0,0,0,0,0,0,0,0,0,0,0,0,0,0,0,0,0,0,0,0,0,0],"id":11,"left_children":[1,3,5,7,9,11,13,15,17,19,21,23,25,27,29,31,33,35,37,39,41,43,45,-1,47,49,51,53,55,57,59,61,63,65,67,-1,-1,69,71,73,75,77,79,81,83,85,87,-1,-1,89,91,93,95,97,99,101,-1,103,105,-1,107,-1,-1,-1,-1,-1,-1,-1,-1,-1,-1,-1,-1,-1,-1,-1,-1,-1,-1,-1,-1,-1,-1,-1,-1,-1,-1,-1,-1,-1,-1,-1,-1,-1,-1,-1,-1,-1,-1,-1,-1,-1,-1,-1,-1,-1,-1,-1,-1],"loss_changes":[3.620709E6,1.860759E6,4.706292E6,4.930117E6,2.3968972E6,9.325375E6,5.720465E6,3.6544172E6,5.2169965E6,7.5506025E5,2.3196975E6,1.490614E6,8.73735E6,6.721183E6,4.337625E6,5.21806E6,4.0972595E6,1.824843E6,2.3430498E6,5.362129E5,1.9583868E6,3.6522802E6,3.444952E6,0E0,1.49718E5,5.354445E6,6.5206505E6,4.98432E6,7.9633425E6,3.68135E6,1.867737E6,3.6105925E6,1.553122E6,7.795354E5,3.91605E6,0E0,0E0,4.8284262E5,1.9836E5,2.3217488E5,4.99257E5,1.5429975E6,1.36585E6,3.1430695E6,8.736195E5,7.9165635E6,4.0238822E6,0E0,0E0,3.7534395E6,4.9588812E5,5.427242E6,2.5337168E6,5.395686E6,4.5918105E6,5.217194E6,0E0,3.2535025E6,2.8289638E6,0E0,1.9525972E5,0E0,0E0,0E0,0E0,0E0,0E0,0E0,0E0,0E0,0E0,0E0,0E0,0E0,0E0,0E0,0E0,0E0,0E0,0E0,0E0,0E0,0E0,0E0,0E0,0E0,0E0,0E0,0E0,0E0,0E0,0E0,0E0,0E0,0E0,0E0,0E0,0E0,0E0,0E0,0E0,0E0,0E0,0E0,0E0,0E0,0E0,0E0,0E0],"parents":[2147483647,0,0,1,1,2,2,3,3,4,4,5,5,6,6,7,7,8,8,9,9,10,10,11,11,12,12,13,13,14,14,15,15,16,16,17,17,18,18,19,19,20,20,21,21,22,22,24,24,25,25,26,26,27,27,28,28,29,29,30,30,31,31,32,32,33,33,34,34,37,37,38,38,39,39,40,40,41,41,42,42,43,43,44,44,45,45,46,46,49,49,50,50,51,51,52,52,53,53,54,54,55,55,57,57,58,58,60,60],"right_children":[2,4,6,8,10,12,14,16,18,20,22,24,26,28,30,32,34,36,38,40,42,44,46,-1,48,50,52,54,56,58,60,62,64,66,68,-1,-1,70,72,74,76,78,80,82,84,86,88,-1,-1,90,92,94,96,98,100,102,-1,104,106,-1,108,-1,-1,-1,-1,-1,-1,-1,-1,-1,-1,-1,-1,-1,-1,-1,-1,-1,-1,-1,-1,-1,-1,-1,-1,-1,-1,-1,-1,-1,-1,-1,-1,-1,-1,-1,-1,-1,-1,-1,-1,-1,-1,-1,-1,-1,-1,-1,-1],"split_conditions":[1.917846E2,1E0,1.939452E2,1.89853E2,8.0996E1,3E0,1.5E1,9.5919475E-2,2E0,7.87986E1,2.2E1,1E0,3E0,1.4E1,7.829027E-2,1E0,8.97488E1,1.36E1,6.9909185E-2,3.8319E1,8.708839E-2,1.8358897E-1,2E0,2.3590815E1,2.2E1,7.654763E-2,1.085E1,7E0,2.63591E2,2.5E1,3.7E1,1.818608E2,1.51505E2,9.704374E-2,1.16484724E-1,-1.343137E2,-6.0073663E2,3E0,5.14625E0,8.310945E-2,2.956045E-2,2E0,2E0,1.892214E2,1.464734E2,6.9909185E-2,1E0,1.899796E2,5.0252194E2,5.343952E-2,1E1,1E0,1.406125E1,3.8948126E-2,1.03E1,2.6E1,-4.7136227E2,3.1007381E-2,1.285E1,-3.7138364E2,7.475E0,6.95112E1,4.1411148E2,-2.6945475E1,1.5057699E1,1.8996631E2,-1.1675415E0,-1.8910909E2,-4.702596E1,-4.086884E1,-1.9424557E2,2.3526358E2,3.1408192E1,-2.0051432E1,-4.4951008E1,-2.354354E1,-5.7297344E0,-1.2121517E2,-1.2917125E1,2.5449237E2,-1.0757599E1,1.3975966E1,-8.774517E1,3.3138452E2,8.7884035E0,-1.0142656E1,3.998086E1,-2.7013477E1,7.690495E0,-6.653252E1,-3.61668E2,1.095789E2,-3.9962135E1,4.0827542E2,-9.353995E1,-3.906434E1,1.19311516E2,6.3948704E1,7.805089E0,-5.3700512E1,5.0052614E0,2.2382321E2,1.3662937E1,-7.344911E1,2.2026474E2,-4.3503476E2,-3.8595528E1,4.6591297E1,-8.812463E1],"split_indices":[4,0,4,4,4,3,3,9,6,4,10,5,5,3,9,6,4,1,9,4,9,9,6,0,10,9,1,3,4,10,10,4,4,9,9,0,0,5,1,9,9,6,6,4,4,9,2,0,0,9,3,2,1,9,1,10,0,9,1,0,1,0,0,0,0,0,0,0,0,0,0,0,0,0,0,0,0,0,0,0,0,0,0,0,0,0,0,0,0,0,0,0,0,0,0,0,0,0,0,0,0,0,0,0,0,0,0,0,0],"split_type":[0,0,0,0,0,0,0,0,0,0,0,0,0,0,0,0,0,0,0,0,0,0,0,0,0,0,0,0,0,0,0,0,0,0,0,0,0,0,0,0,0,0,0,0,0,0,0,0,0,0,0,0,0,0,0,0,0,0,0,0,0,0,0,0,0,0,0,0,0,0,0,0,0,0,0,0,0,0,0,0,0,0,0,0,0,0,0,0,0,0,0,0,0,0,0,0,0,0,0,0,0,0,0,0,0,0,0,0,0],"sum_hessian":[6.818E3,5.351E3,1.467E3,5.46E2,4.805E3,8.1E1,1.386E3,5.32E2,1.4E1,1.085E3,3.72E3,7E0,7.4E1,1.36E3,2.6E1,4.1E2,1.22E2,4E0,1E1,1.032E3,5.3E1,1.211E3,2.509E3,1E0,6E0,2.6E1,4.8E1,1.314E3,4.6E1,1.8E1,8E0,4.5E1,3.65E2,4.9E1,7.3E1,2E0,2E0,8E0,2E0,1.57E2,8.75E2,4.7E1,6E0,1.207E3,4E0,1.223E3,1.286E3,2E0,4E0,1.6E1,1E1,1.1E1,3.7E1,7.7E2,5.44E2,4.5E1,1E0,1.2E1,6E0,6E0,2E0,4.3E1,2E0,2.5E2,1.15E2,1E0,4.8E1,2.9E1,4.4E1,4E0,4E0,1E0,1E0,1.06E2,5.1E1,1.77E2,6.98E2,2.4E1,2.3E1,2E0,4E0,1.18E3,2.7E1,3E0,1E0,7.78E2,4.45E2,8.08E2,4.78E2,1E1,6E0,8E0,2E0,9E0,2E0,1.4E1,2.3E1,2.12E2,5.58E2,1.77E2,3.67E2,2.8E1,1.7E1,7E0,5E0,2E0,4E0,1E0,1E0],"tree_param":{"num_deleted":"0","num_feature":"11","num_nodes":"109","size_leaf_vector":"1"}},{"base_weights":[5.478402E-2,-1.3009666E0,3.175323E2,-5.512804E1,5.1414595E0,6.67374E1,1.0962108E3,-1.5353568E2,-6.819535E0,9.1358595E0,-1.4141795E2,4.358759E2,-4.5673022E2,4.2505548E2,-1.24145035E2,-1.2828746E2,-7.845134E2,4.183523E2,-2.9712803E1,6.25893E1,-2.1074122E-1,1.9809521E0,-2.8663412E2,4.0718506E2,1.69201E2,2.2188824E2,-6.7183966E2,-1.4146228E2,4.352881E2,-1.1863219E3,1.4327576E1,5.8382367E2,-3.6029794E2,-4.2600464E1,4.5927243E2,3.0140873E1,3.0149347E2,-3.9742456E2,1.6940225E0,-1.4413974E2,2.1250839E2,-1.3024228E2,-5.5717694E2,-1.1194613E2,1.0499578E3,-2.900893E2,-2.4234712E2,-1.8464914E2,-3.445255E1,-8.190305E1,-4.7241757E2,-2.8243166E1,5.0961292E1,2.0672178E1,3.4300232E2,-2.3547743E2,2.007314E2,-2.0198379E0,-4.2623146E1,-2.298427E2,2.342909E2,1.0373889E1,-5.1081854E2,-9.9444496E1,1.2075509E2,1.9843523E1,-1.4803372E2,-1.1776477E1,3.5097818E0,-9.585084E1,-1.721297E1,-1.5764632E1,1.6552522E2,-8.404485E1,1.1783829E2,1.7350615E1,-1.973677E2,-1.3976929E2,1.00555466E2,6.312151E1,4.093595E2,1.6850238E2,-1.7513136E2],"categories":[],"categories_nodes":[],"categories_segments":[],"categories_sizes":[],"default_left":[0,0,0,0,0,0,0,0,0,0,0,0,0,0,0,0,0,0,0,0,0,0,0,0,0,0,0,0,0,0,0,0,0,0,0,0,0,0,0,0,0,0,0,0,0,0,0,0,0,0,0,0,0,0,0,0,0,0,0,0,0,0,0,0,0,0,0,0,0,0,0,0,0,0,0,0,0,0,0,0,0,0,0],"id":12,"left_children":[1,3,5,7,9,11,13,15,17,19,21,23,25,-1,-1,27,29,31,33,35,37,39,41,-1,43,-1,45,47,-1,49,51,53,55,57,59,61,63,65,67,69,71,73,75,77,79,-1,81,-1,-1,-1,-1,-1,-1,-1,-1,-1,-1,-1,-1,-1,-1,-1,-1,-1,-1,-1,-1,-1,-1,-1,-1,-1,-1,-1,-1,-1,-1,-1,-1,-1,-1,-1,-1],"loss_changes":[2.935449E6,2.3552458E6,5.590211E6,3.4503032E6,3.552431E6,4.643415E6,3.975552E6,3.7068795E6,4.7624135E6,2.9506975E6,3.3532058E6,3.2103738E6,3.0703895E6,0E0,0E0,5.011511E6,2.9058265E6,3.431459E6,2.9436355E6,6.804978E6,3.8048508E6,2.5531492E6,3.312287E6,0E0,3.0890055E6,0E0,9.064435E5,2.831691E6,0E0,1.698484E6,8.348038E4,5.971414E6,2.7107565E6,1.6153458E6,5.328883E6,6.020013E6,6.847685E6,1.100939E6,2.0510296E6,7.272056E5,3.0862265E6,4.1872025E6,1.834345E6,1.7387889E6,5.051995E5,0E0,1.7004511E6,0E0,0E0,0E0,0E0,0E0,0E0,0E0,0E0,0E0,0E0,0E0,0E0,0E0,0E0,0E0,0E0,0E0,0E0,0E0,0E0,0E0,0E0,0E0,0E0,0E0,0E0,0E0,0E0,0E0,0E0,0E0,0E0,0E0,0E0,0E0,0E0],"parents":[2147483647,0,0,1,1,2,2,3,3,4,4,5,5,6,6,7,7,8,8,9,9,10,10,11,11,12,12,15,15,16,16,17,17,18,18,19,19,20,20,21,21,22,22,24,24,26,26,27,27,29,29,30,30,31,31,32,32,33,33,34,34,35,35,36,36,37,37,38,38,39,39,40,40,41,41,42,42,43,43,44,44,46,46],"right_children":[2,4,6,8,10,12,14,16,18,20,22,24,26,-1,-1,28,30,32,34,36,38,40,42,-1,44,-1,46,48,-1,50,52,54,56,58,60,62,64,66,68,70,72,74,76,78,80,-1,82,-1,-1,-1,-1,-1,-1,-1,-1,-1,-1,-1,-1,-1,-1,-1,-1,-1,-1,-1,-1,-1,-1,-1,-1,-1,-1,-1,-1,-1,-1,-1,-1,-1,-1,-1,-1],"split_conditions":[2.64391E2,1.7E1,1.19852886E-1,3.659601E-2,2.06E1,7E0,1.4024028E-1,2.501092E2,4.0542137E-2,2.3931216E-2,7E0,7.075E0,4E0,4.2505548E2,-1.24145035E2,2.48675E2,1.65E1,2.115902E2,2.075E1,2.284352E2,2.4243293E-2,2.075E1,1.756054E2,4.0718506E2,5E0,2.2188824E2,1.03525E1,6.0175E0,4.352881E2,7.9575E0,6E0,1.50205E2,1E0,1.605E1,4.9579885E-2,2.27372E2,7.39E0,8.395E0,2E0,4.7857877E-2,1.539998E2,2.12E1,1E0,1.56E1,2E0,-2.900893E2,8E0,-1.8464914E2,-3.445255E1,-8.190305E1,-4.7241757E2,-2.8243166E1,5.0961292E1,2.0672178E1,3.4300232E2,-2.3547743E2,2.007314E2,-2.0198379E0,-4.2623146E1,-2.298427E2,2.342909E2,1.0373889E1,-5.1081854E2,-9.9444496E1,1.2075509E2,1.9843523E1,-1.4803372E2,-1.1776477E1,3.5097818E0,-9.585084E1,-1.721297E1,-1.5764632E1,1.6552522E2,-8.404485E1,1.1783829E2,1.7350615E1,-1.973677E2,-1.3976929E2,1.00555466E2,6.312151E1,4.093595E2,1.6850238E2,-1.7513136E2],"split_indices":[4,10,9,9,1,5,9,4,9,9,3,1,3,0,0,4,1,4,1,4,9,1,4,0,5,0,1,1,0,1,3,4,2,1,9,4,1,1,5,9,4,1,8,1,0,0,5,0,0,0,0,0,0,0,0,0,0,0,0,0,0,0,0,0,0,0,0,0,0,0,0,0,0,0,0,0,0,0,0,0,0,0,0],"split_type":[0,0,0,0,0,0,0,0,0,0,0,0,0,0,0,0,0,0,0,0,0,0,0,0,0,0,0,0,0,0,0,0,0,0,0,0,0,0,0,0,0,0,0,0,0,0,0,0,0,0,0,0,0,0,0,0,0,0,0,0,0,0,0,0,0,0,0,0,0,0,0,0,0,0,0,0,0,0,0,0,0,0,0],"sum_hessian":[6.818E3,6.79E3,2.8E1,7.25E2,6.065E3,2.2E1,6E0,2.38E2,4.87E2,5.905E3,1.6E2,1.3E1,9E0,5E0,1E0,2.3E2,8E0,2.4E1,4.63E2,8.78E2,5.027E3,8.1E1,7.9E1,2E0,1.1E1,1E0,8E0,2.29E2,1E0,5E0,3E0,2E1,4E0,4.52E2,1.1E1,7.74E2,1.04E2,2.3E1,5.004E3,4.8E1,3.3E1,5.1E1,2.8E1,9E0,2E0,4E0,4E0,1.1E1,2.18E2,2E0,3E0,2E0,1E0,1.1E1,9E0,3E0,1E0,3.33E2,1.19E2,2E0,9E0,7.73E2,1E0,1.4E1,9E1,4E0,1.9E1,9.82E2,4.022E3,1.5E1,3.3E1,1.9E1,1.4E1,4E1,1.1E1,4E0,2.4E1,5E0,4E0,1E0,1E0,1E0,3E0],"tree_param":{"num_deleted":"0","num_feature":"11","num_nodes":"83","size_leaf_vector":"1"}},{"base_weights":[8.451497E-2,-1.0213709E0,2.5904956E2,-6.545145E0,4.4431072E1,8.000409E1,8.103347E2,1.4765728E1,-1.8952509E1,3.3178524E1,5.830916E2,3.651454E2,-3.2719415E2,3.1879156E2,-1.05523285E2,-3.8626377E1,4.052896E1,-3.1514225E1,3.3863167E1,3.98066E1,-6.495186E2,1.6418088E3,4.88482E1,3.2574805E2,1.5454625E2,1.8860501E2,-5.0325647E2,-1.8130941E1,-1.851147E2,-1.1644065E2,5.3242348E1,-2.870828E1,-3.490815E2,-7.376614E0,2.2980975E2,7.76278E0,1.33094E2,8.877913E1,-8.564152E2,6.242477E2,-1.7138636E1,-2.2050539E2,2.5218788E2,-8.228371E1,8.9246405E2,-2.2046785E2,-1.709688E2,-8.492175E0,3.8275534E2,-8.6208374E1,2.2670174E2,6.0695164E1,-8.419266E1,-2.5278034E1,2.3036774E1,-9.780034E0,1.2320724E2,1.12064644E2,-1.5908856E2,-8.395156E1,5.408197E0,2.4036314E2,4.578288E1,6.5780654E0,-2.2098868E2,2.986671E2,1.504873E1,-3.0273294E2,-1.3941358E1,5.39268E1,-2.2973134E2,1.3409634E2,-8.1142525E1,5.3653275E1,3.4795557E2,1.43227E2,-1.357268E2],"categories":[],"categories_nodes":[],"categories_segments":[],"categories_sizes":[],"default_left":[0,0,0,0,0,0,0,0,0,0,0,0,0,0,0,0,0,0,0,0,0,0,0,0,0,0,0,0,0,0,0,0,0,0,0,0,0,0,0,0,0,0,0,0,0,0,0,0,0,0,0,0,0,0,0,0,0,0,0,0,0,0,0,0,0,0,0,0,0,0,0,0,0,0,0,0,0],"id":13,"left_children":[1,3,5,7,9,11,13,15,17,19,21,23,25,-1,-1,27,29,31,33,35,37,39,41,-1,43,-1,45,47,49,51,53,55,57,59,61,63,65,-1,67,-1,-1,69,-1,71,73,-1,75,-1,-1,-1,-1,-1,-1,-1,-1,-1,-1,-1,-1,-1,-1,-1,-1,-1,-1,-1,-1,-1,-1,-1,-1,-1,-1,-1,-1,-1,-1],"loss_changes":[1.9531291E6,1.7053005E6,2.797618E6,1.6015575E6,4.441773E6,2.7899812E6,2.426156E6,3.0676735E6,2.5407748E6,3.292882E6,8.403992E6,1.9570381E6,1.9993289E6,0E0,0E0,2.176344E6,3.0076058E6,2.7460762E6,5.94916E6,2.1392942E6,1.6227108E6,3.848184E6,2.5313135E6,0E0,2.1705678E6,0E0,5.6708575E5,8.437275E6,8.77826E6,5.971259E6,4.513427E6,5.258167E6,3.7337535E6,4.2203025E6,5.524094E6,5.646456E6,1.3039208E7,0E0,6.951495E5,0E0,0E0,2.101891E6,0E0,1.1169421E6,3.6500675E5,0E0,1.1284595E6,0E0,0E0,0E0,0E0,0E0,0E0,0E0,0E0,0E0,0E0,0E0,0E0,0E0,0E0,0E0,0E0,0E0,0E0,0E0,0E0,0E0,0E0,0E0,0E0,0E0,0E0,0E0,0E0,0E0,0E0],"parents":[2147483647,0,0,1,1,2,2,3,3,4,4,5,5,6,6,7,7,8,8,9,9,10,10,11,11,12,12,15,15,16,16,17,17,18,18,19,19,20,20,21,21,22,22,24,24,26,26,27,27,28,28,29,29,30,30,31,31,32,32,33,33,34,34,35,35,36,36,38,38,41,41,43,43,44,44,46,46],"right_children":[2,4,6,8,10,12,14,16,18,20,22,24,26,-1,-1,28,30,32,34,36,38,40,42,-1,44,-1,46,48,50,52,54,56,58,60,62,64,66,-1,68,-1,-1,70,-1,72,74,-1,76,-1,-1,-1,-1,-1,-1,-1,-1,-1,-1,-1,-1,-1,-1,-1,-1,-1,-1,-1,-1,-1,-1,-1,-1,-1,-1,-1,-1,-1,-1],"split_conditions":[2.64391E2,3E0,1.19852886E-1,2.2E1,1.935E1,7E0,1.4024028E-1,2E0,9E0,1.9E1,1.95E1,7.075E0,4E0,3.1879156E2,-1.05523285E2,2.246088E2,1E0,2.623594E2,2E0,8.708839E-2,1E0,2E0,1.1E1,3.2574805E2,5E0,1.8860501E2,1.03525E1,2.235772E2,1.925E1,9.695E0,7.39E0,2.604594E2,3.42446E-2,6.405E0,7.42E0,8.527499E-2,8.982696E-2,8.877913E1,1.738054E2,6.242477E2,-1.7138636E1,5E0,2.5218788E2,5.935001E-3,2E0,-2.2046785E2,8E0,-8.492175E0,3.8275534E2,-8.6208374E1,2.2670174E2,6.0695164E1,-8.419266E1,-2.5278034E1,2.3036774E1,-9.780034E0,1.2320724E2,1.12064644E2,-1.5908856E2,-8.395156E1,5.408197E0,2.4036314E2,4.578288E1,6.5780654E0,-2.2098868E2,2.986671E2,1.504873E1,-3.0273294E2,-1.3941358E1,5.39268E1,-2.2973134E2,1.3409634E2,-8.1142525E1,5.3653275E1,3.4795557E2,1.43227E2,-1.357268E2],"split_indices":[4,8,9,10,1,5,9,6,5,1,1,1,3,0,0,4,3,4,0,9,0,0,3,0,5,0,1,4,1,1,1,4,9,1,1,9,9,0,4,0,0,3,0,9,0,0,5,0,0,0,0,0,0,0,0,0,0,0,0,0,0,0,0,0,0,0,0,0,0,0,0,0,0,0,0,0,0],"split_type":[0,0,0,0,0,0,0,0,0,0,0,0,0,0,0,0,0,0,0,0,0,0,0,0,0,0,0,0,0,0,0,0,0,0,0,0,0,0,0,0,0,0,0,0,0,0,0,0,0,0,0,0,0,0,0,0,0,0,0,0,0,0,0,0,0,0,0,0,0,0,0,0,0,0,0,0,0],"sum_hessian":[6.818E3,6.79E3,2.8E1,6.055E3,7.35E2,2.2E1,6E0,2.228E3,3.827E3,7.21E2,1.4E1,1.3E1,9E0,5E0,1E0,7.25E2,1.503E3,3.092E3,7.35E2,7.15E2,6E0,4E0,1E1,2E0,1.1E1,1E0,8E0,6.37E2,8.8E1,1.12E2,1.391E3,3.066E3,2.6E1,6.08E2,1.27E2,5.33E2,1.82E2,1E0,5E0,3E0,1E0,8E0,2E0,9E0,2E0,4E0,4E0,6.33E2,4E0,8E1,8E0,3.8E1,7.4E1,2.03E2,1.188E3,3.04E3,2.6E1,5E0,2.1E1,5.1E1,5.57E2,1.4E1,1.13E2,5.24E2,9E0,1.5E1,1.67E2,4E0,1E0,5E0,3E0,2E0,7E0,1E0,1E0,1E0,3E0],"tree_param":{"num_deleted":"0","num_feature":"11","num_nodes":"77","size_leaf_vector":"1"}},{"base_weights":[3.9455917E-1,-2.7269568E0,7.611877E1,-7.6948696E-1,-4.9387173E2,-2.0183585E2,1.6885175E2,2.0183182E0,-9.5790535E1,9.850428E2,-6.581581E2,2.9866263E2,-6.550196E2,5.09204E2,2.2485735E1,-1.4553715E1,1.6618414E1,1.3384552E2,-1.390599E2,6.549676E1,3.7777252E2,2.997429E1,-1.00409766E3,1.2219904E3,1.291695E2,-9.5523956E2,2.2107639E2,-7.5123706E2,7.4180414E2,1.640998E3,-2.3918085E1,-9.949206E0,-1.1755112E2,1.5291107E1,5.7267346E2,-2.9875538E1,7.9370905E2,-4.3395424E1,-3.1082272E2,-9.820296E2,3.1079498E2,-3.641054E2,-1.7749297E3,2.4135962E2,7.71677E2,-2.7032084E1,7.324476E2,-1.6764906E3,-7.1511475E2,-4.146334E2,4.31833E2,-1.4845238E3,-1.4958618E1,1.3444586E3,4.366116E2,1.934149E2,6.944765E2,1.89936E2,-1.9633975E2,-4.588675E0,4.200436E1,1.7904001E1,-7.00234E1,1.4198488E1,-1.3450617E0,7.75332E0,2.2519273E2,-8.277624E1,7.790006E1,-3.3095858E0,2.870591E2,-4.4295204E1,9.047588E1,1.27364845E2,-1.0813739E2,-7.6834993E0,-3.6441937E2,-3.4924594E2,4.352391E1,-6.3024084E2,-1.920495E2,1.8888245E2,-2.9377783E1,-6.8976654E1,1.22246506E2,2.9797922E2,-8.574522E1,1.0502601E1,-6.077377E2,1.2528491E1,-2.5104587E2,-1.6743948E2,-1.9145546E1,2.1746515E2,-8.946387E1,-5.161611E2,-8.107079E1,-3.9273404E2,1.5170851E2,6.5566296E2,3.751372E1,5.6624645E1,2.581857E2,-3.794183E1,1.2042837E2,-2.019327E2,-9.418585E0],"categories":[],"categories_nodes":[],"categories_segments":[],"categories_sizes":[],"default_left":[0,0,0,0,0,0,0,0,0,0,0,0,0,0,0,0,0,0,0,0,0,0,0,0,0,0,0,0,0,0,0,0,0,0,0,0,0,0,0,0,0,0,0,0,0,0,0,0,0,0,0,0,0,0,0,0,0,0,0,0,0,0,0,0,0,0,0,0,0,0,0,0,0,0,0,0,0,0,0,0,0,0,0,0,0,0,0,0,0,0,0,0,0,0,0,0,0,0,0,0,0,0,0,0,0,0,0],"id":14,"left_children":[1,3,5,7,9,11,13,15,17,19,21,23,25,27,29,31,33,35,37,-1,-1,39,41,43,45,47,49,51,53,55,57,59,61,63,65,67,69,71,73,75,-1,77,79,81,-1,83,85,87,89,91,93,95,97,99,101,-1,-1,103,105,-1,-1,-1,-1,-1,-1,-1,-1,-1,-1,-1,-1,-1,-1,-1,-1,-1,-1,-1,-1,-1,-1,-1,-1,-1,-1,-1,-1,-1,-1,-1,-1,-1,-1,-1,-1,-1,-1,-1,-1,-1,-1,-1,-1,-1,-1,-1,-1],"loss_changes":[1.6120442E6,6.296798E6,6.993481E6,1.728667E6,6.965415E6,1.5619238E7,1.0101199E7,1.5342256E6,1.8667474E6,3.5578075E5,5.74335E6,5.00658E6,9.679956E6,1.8441176E7,1.0779286E7,1.4073602E6,2.4792275E6,3.2647192E6,2.566273E6,0E0,0E0,1.0180132E7,7.246963E6,5.9997245E6,2.7525565E6,3.477254E6,1.5188528E6,5.376826E6,8.977128E6,1.193203E6,5.1995225E6,2.2823542E6,2.6217525E6,2.131387E6,7.59149E5,1.8526605E6,7.9833925E5,3.7130775E6,2.197052E6,1.0816885E6,0E0,4.2426185E6,1.243666E6,5.885635E5,0E0,2.209528E6,1.8773735E6,3.657898E6,2.061487E6,1.1540484E5,1.9276938E6,9.67988E5,4.7048505E6,1.7162406E7,3.621002E6,0E0,0E0,4.266597E6,6.112822E6,0E0,0E0,0E0,0E0,0E0,0E0,0E0,0E0,0E0,0E0,0E0,0E0,0E0,0E0,0E0,0E0,0E0,0E0,0E0,0E0,0E0,0E0,0E0,0E0,0E0,0E0,0E0,0E0,0E0,0E0,0E0,0E0,0E0,0E0,0E0,0E0,0E0,0E0,0E0,0E0,0E0,0E0,0E0,0E0,0E0,0E0,0E0,0E0],"parents":[2147483647,0,0,1,1,2,2,3,3,4,4,5,5,6,6,7,7,8,8,9,9,10,10,11,11,12,12,13,13,14,14,15,15,16,16,17,17,18,18,21,21,22,22,23,23,24,24,25,25,26,26,27,27,28,28,29,29,30,30,31,31,32,32,33,33,34,34,35,35,36,36,37,37,38,38,39,39,41,41,42,42,43,43,45,45,46,46,47,47,48,48,49,49,50,50,51,51,52,52,53,53,54,54,57,57,58,58],"right_children":[2,4,6,8,10,12,14,16,18,20,22,24,26,28,30,32,34,36,38,-1,-1,40,42,44,46,48,50,52,54,56,58,60,62,64,66,68,70,72,74,76,-1,78,80,82,-1,84,86,88,90,92,94,96,98,100,102,-1,-1,104,106,-1,-1,-1,-1,-1,-1,-1,-1,-1,-1,-1,-1,-1,-1,-1,-1,-1,-1,-1,-1,-1,-1,-1,-1,-1,-1,-1,-1,-1,-1,-1,-1,-1,-1,-1,-1,-1,-1,-1,-1,-1,-1,-1,-1,-1,-1,-1,-1],"split_conditions":[2.541014E2,2.531014E2,3.3929132E-2,2.06E1,8.4425E0,2.2879018E-2,2.577304E2,1.256046E2,3E0,1E0,1E0,1E0,2.623594E2,5.88E0,5.73E0,1.222756E2,2.05E1,1.581604E2,7E0,6.549676E1,3.7777252E2,7E0,6.557745E-2,1E0,9E0,5E0,2.2E1,7.72923E-2,1.11E1,2.591962E2,7.426848E-2,1.20444E2,4.2552207E-2,4.4869795E-2,2E1,2.5E1,1E0,9.891076E-2,1E0,4E0,3.1079498E2,3.0742083E-2,1E0,6.86E0,7.71677E2,2.0989308E-2,1.76E1,1.7E1,1E0,2.63591E2,8E0,2E0,2E1,8.921016E-2,7.426848E-2,1.934149E2,6.944765E2,9.695E0,8.146533E-2,-4.588675E0,4.200436E1,1.7904001E1,-7.00234E1,1.4198488E1,-1.3450617E0,7.75332E0,2.2519273E2,-8.277624E1,7.790006E1,-3.3095858E0,2.870591E2,-4.4295204E1,9.047588E1,1.27364845E2,-1.0813739E2,-7.6834993E0,-3.6441937E2,-3.4924594E2,4.352391E1,-6.3024084E2,-1.920495E2,1.8888245E2,-2.9377783E1,-6.8976654E1,1.22246506E2,2.9797922E2,-8.574522E1,1.0502601E1,-6.077377E2,1.2528491E1,-2.5104587E2,-1.6743948E2,-1.9145546E1,2.1746515E2,-8.946387E1,-5.161611E2,-8.107079E1,-3.9273404E2,1.5170851E2,6.5566296E2,3.751372E1,5.6624645E1,2.581857E2,-3.794183E1,1.2042837E2,-2.019327E2,-9.418585E0],"split_indices":[4,4,9,1,1,9,4,4,3,0,7,6,4,1,1,4,1,4,5,0,0,3,9,2,5,3,10,9,1,4,9,4,9,9,10,10,5,9,0,3,0,9,2,1,0,9,1,10,8,4,5,8,10,9,9,0,0,1,9,0,0,0,0,0,0,0,0,0,0,0,0,0,0,0,0,0,0,0,0,0,0,0,0,0,0,0,0,0,0,0,0,0,0,0,0,0,0,0,0,0,0,0,0,0,0,0,0],"split_type":[0,0,0,0,0,0,0,0,0,0,0,0,0,0,0,0,0,0,0,0,0,0,0,0,0,0,0,0,0,0,0,0,0,0,0,0,0,0,0,0,0,0,0,0,0,0,0,0,0,0,0,0,0,0,0,0,0,0,0,0,0,0,0,0,0,0,0,0,0,0,0,0,0,0,0,0,0,0,0,0,0,0,0,0,0,0,0,0,0,0,0,0,0,0,0,0,0,0,0,0,0,0,0,0,0,0,0],"sum_hessian":[6.818E3,6.549E3,2.69E2,6.524E3,2.5E1,6.7E1,2.02E2,6.339E3,1.85E2,2E0,2.3E1,3.2E1,3.5E1,6E1,1.42E2,2.969E3,3.37E3,2.9E1,1.56E2,1E0,1E0,8E0,1.5E1,4E0,2.8E1,2.6E1,9E0,9E0,5.1E1,3E0,1.39E2,2.843E3,1.26E2,3.363E3,7E0,2.4E1,5E0,1.01E2,5.5E1,4E0,4E0,9E0,6E0,3E0,1E0,2.3E1,5E0,5E0,2.1E1,2E0,7E0,4E0,5E0,1.6E1,3.5E1,2E0,1E0,6.2E1,7.7E1,2.746E3,9.7E1,5E1,7.6E1,1.283E3,2.08E3,2E0,5E0,1.3E1,1.1E1,1E0,4E0,7.8E1,2.3E1,3E0,5.2E1,1E0,3E0,3E0,6E0,4E0,2E0,1E0,2E0,1.6E1,7E0,4E0,1E0,1E0,4E0,3E0,1.8E1,1E0,1E0,5E0,2E0,3E0,1E0,1E0,4E0,9E0,7E0,2.3E1,1.2E1,2.5E1,3.7E1,1.9E1,5.8E1],"tree_param":{"num_deleted":"0","num_feature":"11","num_nodes":"107","size_leaf_vector":"1"}},{"base_weights":[4.3167046E-1,-5.434853E-1,2.2877136E2,8.341722E-1,-1.1467825E2,1.0408478E2,6.0577423E2,-1.9349611E0,1.1279089E2,-3.7738516E2,7.3794945E1,3.4075372E2,-2.3766023E2,8.048277E2,-8.8282E1,-4.5049486E-1,-3.7440445E2,2.4336922E2,-2.6608456E2,-6.666118E2,3.3409378E1,5.644082E2,-3.2869714E2,2.5216797E2,1.8740604E2,1.27694466E2,-3.586554E2,3.2125323E2,1.2123256E2,-2.3672574E0,1.1239643E2,8.3728644E2,-5.1026562E2,1.811293E2,1.231115E3,-1.6315945E3,-3.7459034E1,-3.3844806E2,-1.1165514E3,1.9004527E2,-3.2392398E2,-2.6826468E2,8.250923E2,-9.775068E1,-9.7457983E2,-2.6678522E1,8.3855255E2,-1.3738252E2,-1.8027026E2,1.0216214E-1,-9.8254135E1,1.14919395E2,-6.0880016E1,5.5672268E1,3.2110666E2,4.251024E0,-2.3201076E2,1.7296774E2,1.2324753E1,-1.7508887E2,6.2212164E2,-7.053047E1,-5.5916187E2,-6.920699E1,2.0755182E2,-2.8329645E2,-4.2732567E1,-3.0715334E0,-4.450848E2,1.887794E2,3.915688E0,5.052636E1,-3.6775412E2,3.9956036E2,6.7991936E1,-1.5243904E2,1.2134392E2,-5.395394E2,-8.559991E1,1.1711255E2,-5.392165E1,7.589517E1,3.014535E2,8.9123146E1,-8.5106964E1],"categories":[],"categories_nodes":[],"categories_segments":[],"categories_sizes":[],"default_left":[0,0,0,0,0,0,0,0,0,0,0,0,0,0,0,0,0,0,0,0,0,0,0,0,0,0,0,0,0,0,0,0,0,0,0,0,0,0,0,0,0,0,0,0,0,0,0,0,0,0,0,0,0,0,0,0,0,0,0,0,0,0,0,0,0,0,0,0,0,0,0,0,0,0,0,0,0,0,0,0,0,0,0,0,0],"id":15,"left_children":[1,3,5,7,9,11,13,15,17,19,21,23,25,27,-1,29,31,33,35,37,39,41,43,-1,45,-1,47,-1,-1,49,51,53,55,57,59,61,63,65,67,69,-1,71,73,75,77,79,81,83,-1,-1,-1,-1,-1,-1,-1,-1,-1,-1,-1,-1,-1,-1,-1,-1,-1,-1,-1,-1,-1,-1,-1,-1,-1,-1,-1,-1,-1,-1,-1,-1,-1,-1,-1,-1,-1],"loss_changes":[1.518489E6,1.0679031E6,1.3001572E6,2.080783E6,4.0384198E6,1.9412335E6,1.4909422E6,3.6214468E6,8.079371E6,4.0619035E6,9.663982E6,9.154916E5,9.5523225E5,2.0684975E5,0E0,1.4116285E6,4.707404E6,7.215752E6,1.305088E7,2.575183E6,2.8206035E6,4.996763E6,3.9321708E6,0E0,1.6951765E6,0E0,3.9986788E5,0E0,0E0,5.649837E6,9.38086E6,2.570515E5,3.3224995E6,6.344861E6,1.1914324E7,1.508051E6,5.3737515E6,1.4093032E6,3.233516E6,1.0801291E6,0E0,2.7154348E6,4.853925E6,4.5337335E6,3.461859E6,7.0850925E5,3.791725E4,4.656657E5,0E0,0E0,0E0,0E0,0E0,0E0,0E0,0E0,0E0,0E0,0E0,0E0,0E0,0E0,0E0,0E0,0E0,0E0,0E0,0E0,0E0,0E0,0E0,0E0,0E0,0E0,0E0,0E0,0E0,0E0,0E0,0E0,0E0,0E0,0E0,0E0,0E0],"parents":[2147483647,0,0,1,1,2,2,3,3,4,4,5,5,6,6,7,7,8,8,9,9,10,10,11,11,12,12,13,13,15,15,16,16,17,17,18,18,19,19,20,20,21,21,22,22,24,24,26,26,29,29,30,30,31,31,32,32,33,33,34,34,35,35,36,36,37,37,38,38,39,39,41,41,42,42,43,43,44,44,45,45,46,46,47,47],"right_children":[2,4,6,8,10,12,14,16,18,20,22,24,26,28,-1,30,32,34,36,38,40,42,44,-1,46,-1,48,-1,-1,50,52,54,56,58,60,62,64,66,68,70,-1,72,74,76,78,80,82,84,-1,-1,-1,-1,-1,-1,-1,-1,-1,-1,-1,-1,-1,-1,-1,-1,-1,-1,-1,-1,-1,-1,-1,-1,-1,-1,-1,-1,-1,-1,-1,-1,-1,-1,-1,-1,-1],"split_conditions":[2.64391E2,2.61491E2,1.19852886E-1,2.541014E2,1.01E1,7E0,1.4024028E-1,2.531014E2,1.685E1,2.6E1,2.6E1,7.075E0,4E0,2.6E1,-8.8282E1,2.471092E2,8.4425E0,1.65E1,1E0,1E0,2.63591E2,5.2389406E-2,1.535E1,2.5216797E2,5E0,1.27694466E2,6.9909185E-2,3.2125323E2,1.2123256E2,2.441486E2,8E0,1E0,1E0,3E0,2.2E1,1.76E1,2E0,3E0,2.623594E2,2E0,-3.2392398E2,2E0,7E0,2.63591E2,1.56E1,5.935001E-3,2E0,8E0,-1.8027026E2,1.0216214E-1,-9.8254135E1,1.14919395E2,-6.0880016E1,5.5672268E1,3.2110666E2,4.251024E0,-2.3201076E2,1.7296774E2,1.2324753E1,-1.7508887E2,6.2212164E2,-7.053047E1,-5.5916187E2,-6.920699E1,2.0755182E2,-2.8329645E2,-4.2732567E1,-3.0715334E0,-4.450848E2,1.887794E2,3.915688E0,5.052636E1,-3.6775412E2,3.9956036E2,6.7991936E1,-1.5243904E2,1.2134392E2,-5.395394E2,-8.559991E1,1.1711255E2,-5.392165E1,7.589517E1,3.014535E2,8.9123146E1,-8.5106964E1],"split_indices":[4,4,9,4,1,5,9,4,1,10,10,1,3,10,0,4,1,1,6,2,4,9,1,0,5,0,9,0,0,4,3,0,7,5,10,1,8,5,4,6,0,0,5,4,1,9,0,5,0,0,0,0,0,0,0,0,0,0,0,0,0,0,0,0,0,0,0,0,0,0,0,0,0,0,0,0,0,0,0,0,0,0,0,0,0],"split_type":[0,0,0,0,0,0,0,0,0,0,0,0,0,0,0,0,0,0,0,0,0,0,0,0,0,0,0,0,0,0,0,0,0,0,0,0,0,0,0,0,0,0,0,0,0,0,0,0,0,0,0,0,0,0,0,0,0,0,0,0,0,0,0,0,0,0,0,0,0,0,0,0,0,0,0,0,0,0,0,0,0,0,0,0,0],"sum_hessian":[6.818E3,6.79E3,2.8E1,6.71E3,8E1,2.2E1,6E0,6.549E3,1.61E2,3.3E1,4.7E1,1.3E1,9E0,5E0,1E0,6.524E3,2.5E1,1.2E2,4.1E1,1.9E1,1.4E1,2.1E1,2.6E1,2E0,1.1E1,1E0,8E0,2E0,3E0,6.416E3,1.08E2,2E0,2.3E1,1.14E2,6E0,5E0,3.6E1,1.2E1,7E0,1.3E1,1E0,5E0,1.6E1,2E1,6E0,9E0,2E0,5E0,3E0,6.364E3,5.2E1,5.8E1,5E1,1E0,1E0,8E0,1.5E1,2.9E1,8.5E1,2E0,4E0,1E0,4E0,2.9E1,7E0,2E0,1E1,2E0,5E0,3E0,1E1,4E0,1E0,8E0,8E0,1.1E1,9E0,2E0,4E0,2E0,7E0,1E0,1E0,1E0,4E0],"tree_param":{"num_deleted":"0","num_feature":"11","num_nodes":"85","size_leaf_vector":"1"}},{"base_weights":[2.7771187E-1,-5.52009E-1,1.9456587E2,9.342886E1,-2.0990524E0,1.00865776E2,4.7464252E2,2.933456E1,6.144211E2,-8.252264E1,-3.0251834E-1,2.880067E2,-1.7121811E2,2.1497018E2,-8.6779625E1,2.1334558E2,-1.0442057E2,-1.2786672E2,1.00154834E3,1.2327989E2,-2.402195E2,-1.6345528E1,8.2302685E0,1.5781543E2,7.127696E2,1.0854031E2,-2.7064258E2,-7.50397E1,3.598887E1,6.419465E1,5.4112885E2,-6.0287445E1,-3.9300134E2,1.1069012E2,-3.4431693E2,1.4994379E1,1.1303463E3,3.7201687E1,4.5810962E2,-3.3785806E2,3.1151562E2,-2.419983E0,-6.3440384E1,1.6595942E1,-3.3363903E1,2.0173439E2,-1.235586E1,6.451088E1,2.5623547E2,-1.600068E2,-1.1938787E2,-3.516855E1,9.313736E1,2.2170572E2,2.301022E1,-6.2064823E1,3.307756E1,-1.4231865E2,6.8878055E0,7.810756E1,3.6958536E2,1.4030516E2,-2.6910135E1,3.1332565E2,7.696824E1,-1.5338425E2,2.1492537E1,2.977838E2,-2.9302866E2,-1.8331653E0,6.2923603E1,-9.158114E0,-8.315195E1,8.592491E-1,1.7271765E1,1.2532673E1,-3.3291054E1,9.369005E1,-3.9767212E1,7.575469E1,-6.7037315E1],"categories":[],"categories_nodes":[],"categories_segments":[],"categories_sizes":[],"default_left":[0,0,0,0,0,0,0,0,0,0,0,0,0,0,0,0,0,0,0,0,0,0,0,0,0,0,0,0,0,0,0,0,0,0,0,0,0,0,0,0,0,0,0,0,0,0,0,0,0,0,0,0,0,0,0,0,0,0,0,0,0,0,0,0,0,0,0,0,0,0,0,0,0,0,0,0,0,0,0,0,0],"id":16,"left_children":[1,3,5,7,9,11,13,15,17,19,21,23,25,-1,27,29,31,33,35,37,39,41,43,45,47,-1,49,-1,-1,51,53,55,-1,-1,57,-1,59,61,63,65,67,69,71,73,75,-1,77,-1,-1,-1,79,-1,-1,-1,-1,-1,-1,-1,-1,-1,-1,-1,-1,-1,-1,-1,-1,-1,-1,-1,-1,-1,-1,-1,-1,-1,-1,-1,-1,-1,-1],"loss_changes":[1.0993639E6,9.8755644E5,7.131779E5,3.6551658E6,9.6541525E5,1.2204268E6,1.0129369E6,2.458907E6,3.576383E6,4.767958E6,8.949948E5,6.617199E5,6.278702E5,0E0,1.3132244E5,2.018608E6,3.0069818E6,6.6474044E5,9.23983E5,1.8275362E6,4.5765095E6,1.4885612E6,1.4856609E6,1.0592168E6,2.739525E4,0E0,2.9395356E5,0E0,0E0,1.3767299E6,1.1380918E6,1.4478811E6,0E0,0E0,2.0199084E5,0E0,2.98016E5,2.882665E6,1.2682522E6,5.078808E6,1.2376294E7,1.3738992E6,3.6354925E6,1.9996055E6,4.1740118E6,0E0,4.3163906E5,0E0,0E0,0E0,3.2735416E5,0E0,0E0,0E0,0E0,0E0,0E0,0E0,0E0,0E0,0E0,0E0,0E0,0E0,0E0,0E0,0E0,0E0,0E0,0E0,0E0,0E0,0E0,0E0,0E0,0E0,0E0,0E0,0E0,0E0,0E0],"parents":[2147483647,0,0,1,1,2,2,3,3,4,4,5,5,6,6,7,7,8,8,9,9,10,10,11,11,12,12,14,14,15,15,16,16,17,17,18,18,19,19,20,20,21,21,22,22,23,23,24,24,26,26,29,29,30,30,31,31,34,34,36,36,37,37,38,38,39,39,40,40,41,41,42,42,43,43,44,44,46,46,50,50],"right_children":[2,4,6,8,10,12,14,16,18,20,22,24,26,-1,28,30,32,34,36,38,40,42,44,46,48,-1,50,-1,-1,52,54,56,-1,-1,58,-1,60,62,64,66,68,70,72,74,76,-1,78,-1,-1,-1,80,-1,-1,-1,-1,-1,-1,-1,-1,-1,-1,-1,-1,-1,-1,-1,-1,-1,-1,-1,-1,-1,-1,-1,-1,-1,-1,-1,-1,-1,-1],"split_conditions":[2.64391E2,5.405E0,1.19852886E-1,9E0,5.88E0,7E0,2E0,4.62622E-2,4.88E0,1.440102E2,1.098228E2,5E0,4E0,2.1497018E2,3E0,3.754997E-2,2.356906E2,2E0,8.39908E1,1.07172154E-1,2.577304E2,1.0609727E-1,1.81E1,7.075E0,2E0,1.0854031E2,6.2575E0,-7.50397E1,3.598887E1,1E0,1.970794E2,4E0,-3.9300134E2,1.1069012E2,8E0,1.4994379E1,5.14625E0,3.454372E-2,1.15119904E-1,9.6508175E-2,2.623594E2,1.0373162E-1,1.040332E2,1.1E1,8E0,2.0173439E2,5.935001E-3,6.451088E1,2.5623547E2,-1.600068E2,8E0,-3.516855E1,9.313736E1,2.2170572E2,2.301022E1,-6.2064823E1,3.307756E1,-1.4231865E2,6.8878055E0,7.810756E1,3.6958536E2,1.4030516E2,-2.6910135E1,3.1332565E2,7.696824E1,-1.5338425E2,2.1492537E1,2.977838E2,-2.9302866E2,-1.8331653E0,6.2923603E1,-9.158114E0,-8.315195E1,8.592491E-1,1.7271765E1,1.2532673E1,-3.3291054E1,9.369005E1,-3.9767212E1,7.575469E1,-6.7037315E1],"split_indices":[4,1,9,5,1,5,6,9,1,4,4,5,3,0,5,9,4,3,4,9,4,9,1,1,0,0,1,0,0,2,4,5,0,0,3,0,1,9,9,9,4,9,4,3,3,0,9,0,0,0,5,0,0,0,0,0,0,0,0,0,0,0,0,0,0,0,0,0,0,0,0,0,0,0,0,0,0,0,0,0,0],"split_type":[0,0,0,0,0,0,0,0,0,0,0,0,0,0,0,0,0,0,0,0,0,0,0,0,0,0,0,0,0,0,0,0,0,0,0,0,0,0,0,0,0,0,0,0,0,0,0,0,0,0,0,0,0,0,0,0,0,0,0,0,0,0,0,0,0,0,0,0,0,0,0,0,0,0,0,0,0,0,0,0,0],"sum_hessian":[6.818E3,6.79E3,2.8E1,1.09E2,6.681E3,2.2E1,6E0,9.8E1,1.1E1,1.45E2,6.536E3,1.3E1,9E0,4E0,2E0,4.1E1,5.7E1,4E0,7E0,6.3E1,8.2E1,2.269E3,4.267E3,1.1E1,2E0,1E0,8E0,1E0,1E0,2.9E1,1.2E1,5.6E1,1E0,1E0,3E0,1E0,6E0,5.1E1,1.2E1,7E1,1.2E1,1.752E3,5.17E2,3.553E3,7.14E2,2E0,9E0,1E0,1E0,2E0,6E0,1.7E1,1.2E1,8E0,4E0,3E1,2.6E1,2E0,1E0,1E0,5E0,1.1E1,4E1,2E0,1E1,4.9E1,2.1E1,8E0,4E0,1.723E3,2.9E1,4.49E2,6.8E1,2.662E3,8.91E2,3.63E2,3.51E2,2E0,7E0,1E0,5E0],"tree_param":{"num_deleted":"0","num_feature":"11","num_nodes":"81","size_leaf_vector":"1"}},{"base_weights":[3.954595E-1,-2.8900346E-1,1.6066417E2,9.216463E-1,-1.0059001E2,2.5005426E2,1.3190328E1,7.095812E-2,1.9692949E2,-1.3245905E2,7.721578E2,1.677134E2,6.058542E2,-1.2412761E2,4.6652002E2,2.5084568E1,-6.0439067E0,5.6622766E2,1.8029152E0,-2.9199066E2,-1.1664806E1,4.623517E2,-1.1488071E2,4.3691928E2,4.1568157E1,5.4834232E1,2.1780016E2,9.225923E1,-2.0625974E2,1.7934346E2,3.0590553E1,-2.9995139E0,1.2685048E2,-7.031941E1,6.557279E-1,-6.811981E2,2.749132E2,-3.9042365E2,3.5700525E2,3.029833E2,-2.8808853E2,1.613875E2,5.707214E1,-1.5064209E2,2.0038148E2,-1.5621585E2,-1.01862335E2,-7.014335E1,2.9282403E0,1.1887865E1,1.2781942E2,-1.7159853E1,-2.9978522E2,1.1885753E1,-2.3162544E0,5.3002335E1,-2.4869719E2,-1.360055E2,1.4559416E2,-7.759272E1,-2.1614754E2,-2.4467442E1,1.461107E2,3.004682E2,1.1581214E1,5.84288E0,-2.5111034E2,2.7375513E1,-8.832058E1,9.1394775E1,-6.378373E1,-7.465866E1,1.0833003E1],"categories":[],"categories_nodes":[],"categories_segments":[],"categories_sizes":[],"default_left":[0,0,0,0,0,0,0,0,0,0,0,0,0,0,0,0,0,0,0,0,0,0,0,0,0,0,0,0,0,0,0,0,0,0,0,0,0,0,0,0,0,0,0,0,0,0,0,0,0,0,0,0,0,0,0,0,0,0,0,0,0,0,0,0,0,0,0,0,0,0,0,0,0],"id":17,"left_children":[1,3,5,7,9,11,13,15,17,19,21,23,25,27,29,31,33,-1,35,37,39,-1,-1,41,43,-1,-1,-1,45,-1,-1,47,49,51,53,55,57,59,61,63,65,-1,-1,67,69,-1,71,-1,-1,-1,-1,-1,-1,-1,-1,-1,-1,-1,-1,-1,-1,-1,-1,-1,-1,-1,-1,-1,-1,-1,-1,-1,-1],"loss_changes":[7.4807694E5,8.247197E5,3.790002E5,1.1189886E6,2.3551832E6,4.2573388E5,8.049116E5,1.02234894E6,9.562558E6,1.5189634E6,3.255021E6,5.2518275E5,1.9793125E4,4.1796144E5,8.262956E4,3.7529372E6,2.312919E6,0E0,5.2237045E6,2.3113918E6,4.0881915E6,0E0,0E0,2.22795E4,3.964925E5,0E0,0E0,0E0,2.4241734E5,0E0,0E0,3.035868E6,7.3951595E6,6.1221195E6,1.5881459E6,1.1607578E6,3.2845662E6,1.118554E6,3.248545E5,4.0245012E6,4.237213E6,0E0,0E0,2.3551236E5,3.6620575E5,0E0,1.7124173E5,0E0,0E0,0E0,0E0,0E0,0E0,0E0,0E0,0E0,0E0,0E0,0E0,0E0,0E0,0E0,0E0,0E0,0E0,0E0,0E0,0E0,0E0,0E0,0E0,0E0,0E0],"parents":[2147483647,0,0,1,1,2,2,3,3,4,4,5,5,6,6,7,7,8,8,9,9,10,10,11,11,12,12,13,13,14,14,15,15,16,16,18,18,19,19,20,20,23,23,24,24,28,28,31,31,32,32,33,33,34,34,35,35,36,36,37,37,38,38,39,39,40,40,43,43,44,44,46,46],"right_children":[2,4,6,8,10,12,14,16,18,20,22,24,26,28,30,32,34,-1,36,38,40,-1,-1,42,44,-1,-1,-1,46,-1,-1,48,50,52,54,56,58,60,62,64,66,-1,-1,68,70,-1,72,-1,-1,-1,-1,-1,-1,-1,-1,-1,-1,-1,-1,-1,-1,-1,-1,-1,-1,-1,-1,-1,-1,-1,-1,-1,-1],"split_conditions":[2.64391E2,2.61491E2,7E0,2.604594E2,1.885E1,5E0,1.19852886E-1,4E0,2.0551458E-2,1.01E1,3E0,7.55E0,2E0,4E0,1.36E1,8E0,5E0,5.6622766E2,2.2E1,3.7E1,2.7E1,4.623517E2,-1.1488071E2,7.426848E-2,1.56E1,5.4834232E1,2.1780016E2,9.225923E1,5.82E0,1.7934346E2,3.0590553E1,1.4649641E-2,1.818608E2,2.563672E2,8.18E0,6.59E0,2.6940467E-2,7.075E0,6.48E0,1.1E1,1.2257121E-1,1.613875E2,5.707214E1,2E0,1.4024028E-1,-1.5621585E2,5E0,-7.014335E1,2.9282403E0,1.1887865E1,1.2781942E2,-1.7159853E1,-2.9978522E2,1.1885753E1,-2.3162544E0,5.3002335E1,-2.4869719E2,-1.360055E2,1.4559416E2,-7.759272E1,-2.1614754E2,-2.4467442E1,1.461107E2,3.004682E2,1.1581214E1,5.84288E0,-2.5111034E2,2.7375513E1,-8.832058E1,9.1394775E1,-6.378373E1,-7.465866E1,1.0833003E1],"split_indices":[4,4,5,4,1,5,9,3,9,1,5,1,0,3,1,5,3,0,10,10,10,0,0,9,1,0,0,0,1,0,0,9,4,4,1,1,9,1,1,1,9,0,0,5,9,0,3,0,0,0,0,0,0,0,0,0,0,0,0,0,0,0,0,0,0,0,0,0,0,0,0,0,0],"split_type":[0,0,0,0,0,0,0,0,0,0,0,0,0,0,0,0,0,0,0,0,0,0,0,0,0,0,0,0,0,0,0,0,0,0,0,0,0,0,0,0,0,0,0,0,0,0,0,0,0,0,0,0,0,0,0,0,0,0,0,0,0,0,0,0,0,0,0,0,0,0,0,0,0],"sum_hessian":[6.818E3,6.79E3,2.8E1,6.71E3,8E1,1.7E1,1.1E1,6.682E3,2.8E1,7.8E1,2E0,1.5E1,2E0,9E0,2E0,1.312E3,5.37E3,2E0,2.6E1,3.3E1,4.5E1,1E0,1E0,4E0,1.1E1,1E0,1E0,1E0,8E0,1E0,1E0,1.029E3,2.83E2,5.06E2,4.864E3,7E0,1.9E1,2.9E1,4E0,2.1E1,2.4E1,2E0,2E0,5E0,6E0,1E0,7E0,5.3E1,9.76E2,2.2E2,6.3E1,5E2,6E0,8.6E2,4.004E3,1E0,6E0,4E0,1.5E1,2.2E1,7E0,1E0,3E0,5E0,1.6E1,1.6E1,8E0,2E0,3E0,5E0,1E0,3E0,4E0],"tree_param":{"num_deleted":"0","num_feature":"11","num_nodes":"73","size_leaf_vector":"1"}},{"base_weights":[4.1280493E-1,-1.2564109E1,1.1284487E1,-9.092175E1,-3.1634393E0,2.641398E2,7.197504E0,-1.34386E2,4.7427982E2,5.6974052E1,-2.1310291E1,1.7674226E2,8.8812976E2,2.3299562E1,-2.6357924E1,-1.141126E2,-4.044722E2,7.46418E2,-2.932584E2,-6.685224E1,1.4428793E2,-7.305959E1,7.778788E0,3.9038364E1,5.575575E2,3.5649025E1,9.965413E2,-7.062628E-1,7.4320435E1,2.9747974E1,-1.1773592E2,-1.905823E2,2.9887892E1,1.183236E3,-3.2442386E2,1.7464996E2,-2.0635567E2,-3.0774708E1,-5.361393E2,3.611577E1,2.764273E2,2.6432782E2,-8.713269E1,3.4586673E2,-1.6254438E0,1.0601847E2,-5.9028723E2,1.0829772E3,1.4532692E2,3.3034082E2,7.1035255E1,2.8984308E0,-5.020002E2,6.005606E2,6.3360226E1,2.1791995E0,2.1105415E2,-2.4962706E2,-2.506868E1,-2.3815353E1,-1.5416931E2,2.3380649E2,-4.3474264E0,3.8759442E2,1.1702735E2,-3.5344315E2,2.4584663E1,7.35918E1,-5.5977173E0,3.511385E1,-4.5742596E1,9.098574E1,-1.9582066E2,2.006186E1,-1.7479129E2,-4.6095787E1,1.1434344E2,1.6856879E2,2.8761534E1,-7.990828E1,-2.0296526E1,-5.6994858E1,1.5007153E2,1.1909005E1,-1.353296E1,8.720494E1,-1.455614E1,-2.437638E2,1.1473352E1,3.845977E2,1.3185279E1,1.0617666E2,-2.2851527E2,1.3639005E1,-1.0322673E1,-1.5964133E1,-3.3589755E2,4.4287375E2,-2.174253E1,9.657018E1,1.4988599E1,-1.7997614E1,3.7519714E1,1.3901631E2,-4.8031742E1,-3.882922E1,-1.7219174E2,1.3399652E2,-3.6172634E1],"categories":[],"categories_nodes":[],"categories_segments":[],"categories_sizes":[],"default_left":[0,0,0,0,0,0,0,0,0,0,0,0,0,0,0,0,0,0,0,0,0,0,0,0,0,0,0,0,0,0,0,0,0,0,0,0,0,0,0,0,0,0,0,0,0,0,0,0,0,0,0,0,0,0,0,0,0,0,0,0,0,0,0,0,0,0,0,0,0,0,0,0,0,0,0,0,0,0,0,0,0,0,0,0,0,0,0,0,0,0,0,0,0,0,0,0,0,0,0,0,0,0,0,0,0,0,0,0,0],"id":18,"left_children":[1,3,5,7,9,11,13,15,17,19,21,23,25,27,29,31,-1,33,35,37,39,41,43,45,47,-1,49,51,53,55,57,59,61,63,65,67,-1,69,71,73,75,77,79,81,83,85,87,89,91,-1,-1,93,95,97,99,101,103,105,107,-1,-1,-1,-1,-1,-1,-1,-1,-1,-1,-1,-1,-1,-1,-1,-1,-1,-1,-1,-1,-1,-1,-1,-1,-1,-1,-1,-1,-1,-1,-1,-1,-1,-1,-1,-1,-1,-1,-1,-1,-1,-1,-1,-1,-1,-1,-1,-1,-1,-1],"loss_changes":[9.6217225E5,2.289846E6,3.8331025E6,8.2442345E6,3.0317715E6,3.060606E6,1.974372E6,7.4749245E6,5.2319285E6,6.9724155E6,3.2129625E6,2.7575405E6,4.65388E5,3.0240795E6,6.078814E6,3.3752682E6,0E0,8.803604E6,1.4125695E6,4.504002E6,5.393074E6,3.6695628E6,4.3468805E6,1.748673E6,2.874931E6,0E0,2.16067E5,3.0372338E6,4.5184335E6,3.673356E6,5.5058585E6,7.1495965E6,3.570203E6,6.17272E5,2.1781185E6,5.921097E4,0E0,4.4973295E6,2.057568E6,4.0164535E6,7.714832E6,1.5000718E6,2.5582915E6,3.155677E6,2.393423E6,1.0700058E6,5.89862E5,1.184347E6,1.9724352E6,0E0,0E0,2.6519095E6,3.2667782E6,9.536868E6,2.668504E6,4.889468E6,9.158833E6,7.176944E6,1.2037902E7,0E0,0E0,0E0,0E0,0E0,0E0,0E0,0E0,0E0,0E0,0E0,0E0,0E0,0E0,0E0,0E0,0E0,0E0,0E0,0E0,0E0,0E0,0E0,0E0,0E0,0E0,0E0,0E0,0E0,0E0,0E0,0E0,0E0,0E0,0E0,0E0,0E0,0E0,0E0,0E0,0E0,0E0,0E0,0E0,0E0,0E0,0E0,0E0,0E0,0E0],"parents":[2147483647,0,0,1,1,2,2,3,3,4,4,5,5,6,6,7,7,8,8,9,9,10,10,11,11,12,12,13,13,14,14,15,15,17,17,18,18,19,19,20,20,21,21,22,22,23,23,24,24,26,26,27,27,28,28,29,29,30,30,31,31,32,32,33,33,34,34,35,35,37,37,38,38,39,39,40,40,41,41,42,42,43,43,44,44,45,45,46,46,47,47,48,48,51,51,52,52,53,53,54,54,55,55,56,56,57,57,58,58],"right_children":[2,4,6,8,10,12,14,16,18,20,22,24,26,28,30,32,-1,34,36,38,40,42,44,46,48,-1,50,52,54,56,58,60,62,64,66,68,-1,70,72,74,76,78,80,82,84,86,88,90,92,-1,-1,94,96,98,100,102,104,106,108,-1,-1,-1,-1,-1,-1,-1,-1,-1,-1,-1,-1,-1,-1,-1,-1,-1,-1,-1,-1,-1,-1,-1,-1,-1,-1,-1,-1,-1,-1,-1,-1,-1,-1,-1,-1,-1,-1,-1,-1,-1,-1,-1,-1,-1,-1,-1,-1,-1,-1],"split_conditions":[1.21E1,1E0,1.215E1,2.441486E2,3.1288337E-2,2E0,7E0,2.380248E2,2E0,1.7845372E-2,5.8198143E-2,1.780344E2,3E0,1.77037E2,1.65121E2,7.226985E-2,-4.044722E2,7.426848E-2,9.065E0,1.1545E1,1.51505E2,5.405E0,6.0649823E-2,1.659526E2,7E0,3.5649025E1,1.713448E2,1.76437E2,1.780344E2,1.50205E2,4.7857877E-2,5.343952E-2,7.477855E-2,1E0,5.88E0,7.9575E0,-2.0635567E2,6E0,3E0,1.477102E2,6.86E0,5E0,6.405E0,6E0,8.71E0,3.02125E-2,4.0542137E-2,2.217456E2,2E0,3.3034082E2,7.1035255E1,5.5216312E-2,2.7E1,1.685E1,1.3130031E-2,1.785E1,1.77E1,1E1,6.1045133E-2,-2.3815353E1,-1.5416931E2,2.3380649E2,-4.3474264E0,3.8759442E2,1.1702735E2,-3.5344315E2,2.4584663E1,7.35918E1,-5.5977173E0,3.511385E1,-4.5742596E1,9.098574E1,-1.9582066E2,2.006186E1,-1.7479129E2,-4.6095787E1,1.1434344E2,1.6856879E2,2.8761534E1,-7.990828E1,-2.0296526E1,-5.6994858E1,1.5007153E2,1.1909005E1,-1.353296E1,8.720494E1,-1.455614E1,-2.437638E2,1.1473352E1,3.845977E2,1.3185279E1,1.0617666E2,-2.2851527E2,1.3639005E1,-1.0322673E1,-1.5964133E1,-3.3589755E2,4.4287375E2,-2.174253E1,9.657018E1,1.4988599E1,-1.7997614E1,3.7519714E1,1.3901631E2,-4.8031742E1,-3.882922E1,-1.7219174E2,1.3399652E2,-3.6172634E1],"split_indices":[1,6,1,4,9,0,5,4,0,9,9,4,5,4,4,9,0,9,1,1,4,1,9,4,3,0,4,4,4,4,9,9,9,2,1,1,0,5,5,4,1,3,1,3,1,9,9,4,8,0,0,9,10,1,9,1,1,3,9,0,0,0,0,0,0,0,0,0,0,0,0,0,0,0,0,0,0,0,0,0,0,0,0,0,0,0,0,0,0,0,0,0,0,0,0,0,0,0,0,0,0,0,0,0,0,0,0,0,0],"split_type":[0,0,0,0,0,0,0,0,0,0,0,0,0,0,0,0,0,0,0,0,0,0,0,0,0,0,0,0,0,0,0,0,0,0,0,0,0,0,0,0,0,0,0,0,0,0,0,0,0,0,0,0,0,0,0,0,0,0,0,0,0,0,0,0,0,0,0,0,0,0,0,0,0,0,0,0,0,0,0,0,0,0,0,0,0,0,0,0,0,0,0,0,0,0,0,0,0,0,0,0,0,0,0,0,0,0,0,0,0],"sum_hessian":[6.818E3,3.108E3,3.71E3,3.32E2,2.776E3,5.8E1,3.652E3,3.09E2,2.3E1,6.43E2,2.133E3,5.2E1,6E0,2.468E3,1.184E3,3.05E2,4E0,1.7E1,6E0,2.66E2,3.77E2,7.67E2,1.366E3,3.9E1,1.3E1,1E0,5E0,1.679E3,7.89E2,7.34E2,4.5E2,1.99E2,1.06E2,1.2E1,5E0,3E0,3E0,2.48E2,1.8E1,2.08E2,1.69E2,3E1,7.37E2,3.6E1,1.33E3,3.6E1,3E0,5E0,8E0,4E0,1E0,1.668E3,1.1E1,1.5E1,7.74E2,6.38E2,9.6E1,1.85E2,2.65E2,1.49E2,5E1,5E0,1.01E2,1E1,2E0,1E0,4E0,2E0,1E0,1.12E2,1.36E2,2E0,1.6E1,1.99E2,9E0,3.3E1,1.36E2,1E1,2E1,7.1E1,6.66E2,8E0,2.8E1,6.82E2,6.48E2,1.6E1,2E1,2E0,1E0,4E0,1E0,7E0,1E0,7.79E2,8.89E2,7E0,4E0,6E0,9E0,3.7E1,7.37E2,4.24E2,2.14E2,5.7E1,3.9E1,1.36E2,4.9E1,4.4E1,2.21E2],"tree_param":{"num_deleted":"0","num_feature":"11","num_nodes":"109","size_leaf_vector":"1"}},{"base_weights":[3.4840664E-1,-8.896327E0,1.3226037E1,-2.3393774E0,-1.6105128E2,2.4825786E2,8.940376E0,-6.415008E0,5.684865E2,-9.1021935E1,-6.089215E2,-1.8273824E2,5.560464E2,1.2987839E1,-1.4459384E2,-5.242322E-1,-1.4148941E2,1.0206315E3,-3.0222308E2,2.2153301E1,-3.0197095E2,-2.1968967E1,-9.427538E2,-2.889898E2,3.0728174E2,1.345446E2,9.6857855E2,6.3553557E0,3.7561435E2,-1.9850974E2,4.8156598E2,-2.4329042E1,1.754042E1,2.3741385E-1,-2.4584035E2,1.2877932E3,-2.3638281E2,5.3148474E2,-9.4660913E2,-1.0630498E1,6.0783105E2,-3.8431232E1,-6.096727E2,-1.5398479E2,5.44641E1,-5.292652E2,-1.0552227E3,-6.0968317E2,-4.4741344E1,-2.4815607E2,2.4194907E2,1.3801716E3,-1.3064185E2,8.938523E0,-5.6892914E2,2.4374498E2,1.7982084E3,-3.824708E2,4.1124577E1,-1.6828012E2,8.022527E2,-3.1440065E0,-4.7027905E1,2.6267442E-1,3.206393E1,-2.7579233E1,2.3983208E1,-1.8315219E2,-1.9627033E1,1.3854524E2,4.638494E2,4.3265625E1,-1.2339687E2,1.50003395E1,2.5074203E2,-3.3344702E2,-1.8330671E1,6.4276245E1,-2.730826E1,9.7051796E1,2.617697E2,-3.7517048E1,9.001163E1,-2.6169342E2,-2.4559069E0,-4.2997804E0,-6.606832E1,-1.7593274E2,-4.5083424E1,-4.2076398E2,-2.1180177E2,-1.3840105E1,-2.651307E2,1.1602086E2,-1.0882705E2,-1.0078604E2,2.2854128E0,-7.8245544E1,9.167438E1,4.5932553E2,-1.9344398E1,1.265131E2,-3.510076E2,2.6904085E1,1.1275845E-1,-3.4881177E2,6.558954E1,1.20972404E2,-2.1074501E2,6.1466455E2,1.569282E2,-2.441443E2,-1.9732964E1,-2.867064E1,2.8605713E2,3.4695612E2,-9.222272E1],"categories":[],"categories_nodes":[],"categories_segments":[],"categories_sizes":[],"default_left":[0,0,0,0,0,0,0,0,0,0,0,0,0,0,0,0,0,0,0,0,0,0,0,0,0,0,0,0,0,0,0,0,0,0,0,0,0,0,0,0,0,0,0,0,0,0,0,0,0,0,0,0,0,0,0,0,0,0,0,0,0,0,0,0,0,0,0,0,0,0,0,0,0,0,0,0,0,0,0,0,0,0,0,0,0,0,0,0,0,0,0,0,0,0,0,0,0,0,0,0,0,0,0,0,0,0,0,0,0,0,0,0,0,0,0,0,0],"id":19,"left_children":[1,3,5,7,9,11,13,15,17,19,21,23,25,27,29,31,33,35,37,39,41,43,45,47,-1,49,51,53,55,57,59,61,63,65,67,69,71,73,75,77,79,81,83,85,-1,87,89,91,93,95,97,99,101,103,105,107,109,111,113,-1,115,-1,-1,-1,-1,-1,-1,-1,-1,-1,-1,-1,-1,-1,-1,-1,-1,-1,-1,-1,-1,-1,-1,-1,-1,-1,-1,-1,-1,-1,-1,-1,-1,-1,-1,-1,-1,-1,-1,-1,-1,-1,-1,-1,-1,-1,-1,-1,-1,-1,-1,-1,-1,-1,-1,-1,-1],"loss_changes":[8.119215E5,3.9603828E6,2.86849E6,8.860538E6,5.0882805E6,6.86705E6,1.741865E6,3.0084415E6,1.0938006E7,3.4207005E6,4.2900495E6,3.1174338E6,5.086174E6,6.561169E6,2.5263135E6,1.5588395E6,2.336772E6,6.349282E6,5.875405E6,1.8113311E6,4.031152E6,2.697614E5,9.2573E4,1.6176281E6,0E0,7.177014E5,6.96678E6,3.9892028E6,8.753928E6,2.969315E6,2.455905E6,2.8667875E6,3.0683762E6,5.0690547E5,5.9471375E6,2.487084E6,3.256504E5,6.908391E5,8.081045E5,1.6467081E6,9.40735E4,8.5848644E5,3.62625E6,5.234939E4,0E0,2.021775E4,2.22707E5,1.3493768E6,1.924106E6,